svm_type c_svc
kernel_type rbf
gamma 0.02631578947368421
nr_class 6
total_sv 507
rho -0.6508479873883034 0.07404360955410501 -0.18775533419692295 0.21794335779205207 -1.5186937187314438 -0.029705742316595226 1.0278969541985903 0.9872675341395357 0.08277450359447092 0.11163865444147178 0.11645208225357155 -0.1422836438183301 0.3327026148807213 -3.1816898877338757 -2.2706440639468646
label 1 2 3 4 5 6
nr_sv 105 35 7 120 140 100
SV
0.0 0.0 0.19980393944214617 0.0 6.0 1:0.5244868766015585 2:0.20040245632224465 3:-0.36881097821838243 4:3.3111006533268585 5:0.0046049370397627885 6:-0.12532905378464548 7:0.9041022320061417 8:-0.07888274901631628 9:0.5212978573317527 10:0.14424949419930008 11:-0.33613059510556925 12:3.572857875124085 13:-0.16752735060323157 14:2.0175433305814563 15:-0.2512743327878759 16:-0.07888274901631628 17:-0.7486012923017521 18:0.5244867813752926 19:-0.7470462115039898 20:0.3573261044884035 21:-0.6803352991683964 22:-0.3001342183285689 23:-0.5989594880004098 24:-0.5828568539883701 25:-0.6836580649169127 26:-0.6802713998270788 27:-0.7904019145879936 28:0.5212918143094116 29:-0.6210367104256469 30:0.2993694019133239 31:-0.5792465412039247 32:-0.35754777650244873 33:-0.5713549725511988 34:-0.7755133680609886 35:-0.614167531234003 36:-0.7501133798872354 37:-0.6943292549169547 38:-0.7207077286813838 
0.0 0.0 0.0 6.0 0.6226354123176806 1:0.3039477289796362 2:0.21328928024098195 3:-0.45013153773465836 4:3.5801166799851334 5:0.3480517606583833 6:-0.3935635461217822 7:3.5801166596025 8:-0.10016409856919564 9:0.0840218091366005 10:-0.10016409856919564 11:-0.4283053634452925 12:2.101697851218188 13:-0.3736917633267597 14:1.188822892114882 15:-0.3805648559216504 16:-0.26375508344097814 17:-0.723306757185754 18:0.30394653181032505 19:-0.24109773203623625 20:0.08794508516024521 21:-0.2104039734996681 22:-0.37929121650667447 23:-0.3084563200571927 24:-0.5189774687140678 25:-0.48781338609599323 26:-0.5935136111962738 27:-0.6640213256760119 28:0.08401890152332243 29:-0.2650638113199524 30:-0.14357705617954494 31:-0.6162936558396694 32:-0.6069280719557598 33:-0.4510667611191691 34:-0.625618341977361 35:-0.5115545277755107 36:-0.6987844099612658 37:-0.6599928976735443 38:-0.6798735085310356 
0.0 0.49585776360430467 0.0 0.0 6.0 1:0.6091734183777728 2:0.17996517834329123 3:-0.3121399914750157 4:3.555845098690331 5:2.343065484184997 6:-0.2882309541100736 7:1.3855652385948485 8:-0.12915639332171677 9:0.4026390871745432 10:-0.08971971760950521 11:-0.33205405258295484 12:2.3828831366554843 13:-0.26107300340852535 14:1.3887044506843385 15:-0.2759251036622593 16:0.356883098143615 17:-0.8062578227270102 18:0.6091679716823388 19:-0.4925620455967021 20:0.3312748924370353 21:-0.5046826554151188 22:-0.5467554488950865 23:-0.7944229472648897 24:-0.650372992981852 25:-0.5959365699377348 26:-0.8437863331168375 27:-0.7197855078567447 28:0.4026315652777894 29:-0.6368246421572559 30:0.0015578524142408172 31:-0.7157453045839391 32:-0.7811479936542428 33:-0.629382162444193 34:-0.579593492037213 35:-0.7776545848093357 36:-0.7163528539482708 37:-0.726620438205476 38:-0.7431734608586772 
0.0 0.0 1.042994075757357 6.0 6.0 1:0.2914298619543234 2:0.3770107594070185 3:-0.4507903824831669 4:3.791201350058595 5:0.6354401454387862 6:-0.354082705070742 7:3.7912015079169263 8:-0.44045330603829336 9:-0.08264498016777007 10:-0.20139936975838135 11:-0.4609854690061906 12:1.4317959208290523 13:-0.4004183539862962 14:0.8245859345688048 15:-0.42948113905719026 16:-0.3278569597258645 17:-0.645379193606475 18:0.29142998226413863 19:-0.21212199025997674 20:0.3816266929320387 21:-0.1954577310057373 22:-0.10287538525034265 23:-0.3381735999567408 24:-0.33632983478587475 25:-0.506786628559603 26:-0.48923567307815313 27:-0.5887286195884731 28:-0.0826432292723281 29:-0.5470961205394524 30:-0.16804052067866077 31:-0.5939643496920011 32:-0.4277158443616998 33:-0.5871944943699662 34:-0.4828317558816338 35:-0.5825639696278676 36:-0.5507555017946064 37:-0.615484326380964 38:-0.6142307213852386 
0.0 0.0 6.0 6.0 6.0 1:0.3260811133968333 2:0.4935568250480178 3:-0.49966168826247326 4:3.125274388164272 5:3.125274510034998 6:-0.4579248984320049 7:2.8905756849326454 8:-0.48720454054021683 9:-0.20874525316406028 10:-0.23046289773160505 11:-0.5112192188834658 12:1.138177455460667 13:-0.47835541540850723 14:1.1006701917409507 15:-0.47801142424344384 16:-0.48720454054021683 17:-0.6781624113212171 18:0.32608247005738306 19:-0.5218311434322527 20:0.5942408631044056 21:-0.37207869282289985 22:0.10873816034050089 23:-0.39550794082541973 24:-0.27679163692070363 25:-0.49264499449197086 26:-0.521587722673785 27:-0.6052879504729168 28:-0.20874336389104717 29:-0.5131410223549544 30:-0.218236773471289 31:-0.5618130030105787 32:-0.3726263895294523 33:-0.6244573352022513 34:-0.502467022096144 35:-0.6534365764978356 36:-0.5867149466018284 37:-0.648702042745638 38:-0.6356508167125025 
0.0 0.0 2.1812111797386096 6.0 6.0 1:0.45283765248587265 2:0.6194352204557245 3:-0.48125605787792775 4:4.322715282168265 5:2.8199470861127534 6:-0.457452682872267 7:0.07923899741548236 8:-0.35305850029352404 9:-0.0821025727405631 10:-0.08056830516500321 11:-0.504566321182769 12:1.6403240159376298 13:-0.46961705570013207 14:1.0504052925546934 15:-0.47886263482206226 16:-0.5433613333017991 17:-0.701660645644106 18:0.45283435107297754 19:-0.27742898274215205 20:0.5972504134721325 21:-0.12388631364330872 22:0.05455430944078381 23:-0.28762604287751214 24:-0.31119187703170353 25:-0.3303490288878699 26:-0.6573051545655039 27:-0.6085559121765506 28:-0.08209898322857502 29:-0.5898269416946529 30:-0.0645752640223963 31:-0.6498516269393464 32:-0.2692301023533788 33:-0.6598583842416982 34:-0.45653566574177357 35:-0.6556400047766814 36:-0.5707015069773214 37:-0.6646793893445745 38:-0.6776953302711637 
0.0 0.504093457692072 0.0 0.0 0.0 1:0.318239311183361 2:0.09487116188301156 3:-0.31259128943620135 4:3.656422581137031 5:2.142303381133981 6:-0.3043908977699514 7:2.7682830766801043 8:0.42900602488655615 9:0.15350166956312514 10:-0.2307224743048425 11:-0.3098995248768871 12:1.5576578204307154 13:-0.2880187855060176 14:1.3302622564220197 15:-0.2832624528023762 16:0.03563716027754169 17:-0.728582559280407 18:0.31823581116806154 19:-0.7058631495104506 20:0.08633257270402837 21:-0.6441534088749115 22:-0.39974841618252316 23:-0.6837115653221555 24:-0.28471260883842453 25:-0.693201589180848 26:-0.41179533766117427 27:-0.6728939215454075 28:0.15350030633601758 29:-0.7253349083085968 30:-0.14791858617063972 31:-0.689317071642834 32:-0.6465873787246798 33:-0.6956601445846543 34:-0.5517854823539072 35:-0.6977253311238516 36:-0.5859839880208534 37:-0.6941112546802563 38:-0.656281007102708 
0.0 0.0 0.0 0.0 5.557018139452506 1:0.5871751322004456 2:0.1648309818870522 3:-0.2675995764917994 4:3.286599309890837 5:2.1689719493586135 6:-0.21319142013187606 7:2.401797898361121 8:0.1648309818870522 9:0.318267356496543 10:-0.17893884768836438 11:-0.3372506337820382 12:2.1908358454097465 13:-0.23783335729906724 14:1.2929702414938173 15:-0.25230507437376026 16:0.1648309818870522 17:-0.7737449602356894 18:0.587179589571732 19:-0.5566160882250246 20:0.3631469330968553 21:-0.6794677624829675 22:-0.4921557411780051 23:-0.7746410280944727 24:-0.5643402952891466 25:-0.762288427114944 26:-0.5806776062620717 27:-0.7580278525835433 28:0.3182729682481456 29:-0.7766333830911709 30:-0.08436665077688907 31:-0.751652316594109 32:-0.762962762652288 33:-0.8083884565770064 34:-0.5576275915310406 35:-0.7528783812074619 36:-0.6626706772800351 37:-0.725721050021699 38:-0.697730228824548 
0.0 0.0 0.9341180477847901 6.0 0.0 1:0.39984676475297076 2:0.6053452035396404 3:-0.4339721638366309 4:4.420298825045551 5:-0.15734782402565972 6:-0.3621365975045906 7:3.185010059645573 8:-0.28215055537715034 9:-0.04888585215246495 10:-0.2662472737887291 11:-0.4237846958767373 12:1.4025621333804872 13:-0.2284023040402573 14:0.09975257618122774 15:-0.3929178908233788 16:-0.2172386716377556 17:-0.6287422375056968 18:0.3998461511308006 19:0.01871602575494433 20:0.5180182354783689 21:0.0032832253959032194 22:-0.020604347820193956 23:-0.2548713362356697 24:-0.282507570737717 25:-0.5437129909050415 26:-0.4575100092991253 27:-0.6030424526428483 28:-0.04888970115963526 29:-0.5630729602303159 30:-0.24849374365827415 31:-0.45650387510116464 32:-0.5416682665672505 33:-0.5208477798578397 34:-0.5500418995696326 35:-0.6456084204049564 36:-0.6034481519162195 37:-0.6550368715181035 38:-0.6149927561124324 
0.0 0.0 3.290271298282076 6.0 6.0 1:0.49553399956122657 2:0.7315202452647727 3:-0.5041972179205533 4:3.8059843852679975 5:2.8001299275240226 6:-0.47795658841973976 7:1.7054363093324376 8:-0.4815426614504373 9:-0.1102682563626159 10:-0.15208185497008722 11:-0.508657619803543 12:1.7757020023801189 13:-0.4643423810838537 14:0.47484506373865054 15:-0.4856658348986543 16:-0.5388721545056306 17:-0.6807137592682752 18:0.4955310548758554 19:-0.6326058756508718 20:0.8812223855913007 21:-0.6034968255520974 22:0.3353309527197495 23:-0.6014616285486379 24:-0.12918126475995495 25:-0.6063776325781208 26:-0.46498877033075015 27:-0.6464222834771733 28:-0.11026969823837306 29:-0.5368226251289074 30:-0.11454791165761681 31:-0.5916009557431448 32:-0.32652371222919435 33:-0.6301550398227623 34:-0.49831153816908125 35:-0.6518112558243616 36:-0.6161666435172951 37:-0.6803756757391116 38:-0.6558186606052864 
0.0 0.0 0.0 6.0 2.299981571475494 1:0.6146297064052159 2:0.8780952410529885 3:-0.48703294508620804 4:4.552450113908911 5:1.9013139817373053 6:-0.48703294918809364 7:0.06897806066720141 8:-0.32793724175057026 9:0.028704163120367453 10:0.012880748729826898 11:-0.49891384980438 12:2.0774730164744537 13:-0.46914450355078297 14:-0.08454709363609993 15:-0.483690894319703 16:-0.5305895332235003 17:-0.6750364541959125 18:0.6146323412719392 19:-0.5063050336286609 20:0.9595127659769541 21:-0.4318640918942712 22:0.38129511533181654 23:-0.5837350966622762 24:0.029152983515688426 25:-0.5299815763490815 26:-0.38059306215162 27:-0.6636983133393031 28:0.028705459705352394 29:-0.6810588596421508 30:0.08174125315291383 31:-0.5944418927284293 32:-0.2084906036182341 33:-0.5776386402271322 34:-0.4600327604090085 35:-0.6286901299873544 36:-0.5958097956958717 37:-0.6761276538829762 38:-0.6671719760793264 
0.0 0.0 0.0 0.0 6.0 1:0.9185930006540122 2:0.3634225020154212 3:-0.2602214569660741 4:4.296498819974768 5:0.2808164432107869 6:0.17828181442397992 7:-0.0638911904276604 8:-0.0645995833533759 9:0.6388818251806507 10:-0.03250292755826027 11:-0.16643427362006255 12:2.6091100651810817 13:-0.0022127081460535506 14:0.06098500738333463 15:0.8651046866180573 16:0.42629400876584733 17:-0.7335963730586876 18:0.9185989199624135 19:-0.5740244085750998 20:0.5668122995099751 21:-0.557293118643703 22:-0.46570055591412457 23:-0.69404789184825 24:-0.5078764970370345 25:-0.7624457323501951 26:-0.5135217733464056 27:-0.7509097329353933 28:0.6388918419528145 29:-0.7772543557124583 30:0.09575899007223695 31:-0.8577609048200109 32:-0.7383101307376666 33:-0.7519733357183183 34:-0.5493570055711089 35:-0.7716090794030872 36:-0.6753939353477195 37:-0.8643061527149338 38:-0.7228071010996954 
0.0 0.0 0.0 6.0 0.0 1:0.5153107972337209 2:0.551182399034716 3:-0.32472651123630164 4:5.201202742448206 5:-0.2848902676833105 6:0.6884401152146173 7:-0.2720860779858197 8:-0.43249525359260543 9:0.07172330132338559 10:-0.13790370057750517 11:-0.3540530393366918 12:2.057348335706397 13:0.38843136392090116 14:-0.24529275899618738 15:-0.19830329516278902 16:-0.2032800487468769 17:-0.5909593465027249 18:0.5153096184444821 19:-0.39362417510418396 20:0.6388184113221886 21:-0.31307413186798083 22:0.013633940105464206 23:-0.2870009023167793 24:-0.40374784665153696 25:-0.3897657191559475 26:-0.4982036123150476 27:-0.47463264875007855 28:0.07172089326678599 29:-0.610538163956525 30:-0.08120385089945596 31:-0.5531770589438815 32:-0.39433092198579167 33:-0.5005148656305753 34:-0.510103701699955 35:-0.5199599555083214 36:-0.5632625279570935 37:-0.5874829346024589 38:-0.5885086008544412 
0.0 0.0 6.0 6.0 6.0 1:0.7899883001786961 2:1.049418562148152 3:-0.4425042238845047 4:4.893562271520635 5:-0.20758192306458573 6:-0.1819384650824023 7:-0.2148266520478204 8:-0.4243575089569762 9:0.03188730175332911 10:-0.0032786314983681373 11:-0.46976045674784445 12:2.106415146611201 13:-0.3140898231036292 14:-0.35095845975813295 15:-0.19501957619260774 16:-0.4243575089569762 17:-0.6355720433970118 18:0.7899901112505808 19:-0.4846068783400121 20:1.211569019876171 21:-0.3816881827078373 22:0.49120833026385724 23:-0.4711323542613366 24:-0.010717691666803537 25:-0.48462442329323946 26:-0.37921434430276796 27:-0.5323817859783366 28:0.03189022724603936 29:-0.5338555620494417 30:0.04584723753846942 31:-0.5218021791821892 32:-0.24055657894629381 33:-0.552049678546299 34:-0.46711455997225243 35:-0.608053169248294 36:-0.6028774080461986 37:-0.6701447587202113 38:-0.6367116804347642 
0.0 0.0 6.0 6.0 6.0 1:0.5725822847471355 2:0.9124046254343856 3:-0.4290816842223492 4:5.044616481437998 5:-0.1822931047205349 6:-0.19929510119040844 7:-0.3510985756816628 8:-0.4806779070185342 9:0.10269662265747515 10:0.051999905694578435 11:-0.462480639694061 12:2.1443016600598868 13:-0.22603010963102427 14:-0.3517615202020461 15:-0.07938487538361201 16:-0.40954121919562636 17:-0.6237807847716411 18:0.5725807849734172 19:-0.4264539667255227 20:0.9343730871547484 21:-0.25718421805091346 22:0.41185633092353463 23:-0.22471032005975605 24:-0.08103199482943793 25:-0.3121728777380212 26:-0.42295048485024445 27:-0.47317298645321737 28:0.1026962856451772 29:-0.622880145976527 30:0.1480459241322809 31:-0.6183985346436838 32:-0.1654001065874067 33:-0.6469065622887141 34:-0.40916775158455604 35:-0.6691367772333727 36:-0.5618448678244721 37:-0.6862095823108707 38:-0.6251072939924026 
0.0 0.0 0.0 6.0 0.0 1:0.3140878134779592 2:0.51562244082279 3:-0.43072152711295675 4:5.228217439947454 5:-0.3265053357208595 6:1.0626832989505757 7:-0.33397668661495616 8:-0.3243571374766875 9:0.049290248496643235 10:-0.11903620730509284 11:-0.426533176150726 12:1.933550997976967 13:0.021329657601486838 14:-0.35416319184121287 15:0.5647507449126983 16:-0.2477775892239244 17:-0.6422021601283919 18:0.3140865563065984 19:0.13914057832316115 20:0.2179600783623175 21:-0.27214903045536626 22:-0.01830697288451971 23:-0.20692240023107533 24:-0.21268501123709574 25:-0.47255770823284726 26:-0.5672866094215152 27:-0.4840254955836985 28:0.049293623335606884 29:-0.38037507702358364 30:-0.22578011398831818 31:-0.25983886807373463 32:-0.5048168429343237 33:-0.512570522194916 34:-0.5951998547596473 35:-0.5384352646172866 36:-0.6482886265858754 37:-0.6592777917601469 38:-0.6462242769555123 
0.0 1.2011083173577266 0.0 0.0 6.0 1:0.6704520207973829 2:0.1763214656143376 3:-0.2404041484979676 4:3.3428071358474805 5:-0.19620256405729253 6:2.0583603514110087 7:-0.2204643156780053 8:0.24987550793599902 9:0.384818721944044 10:-0.16310096312879677 11:-0.2323998590346647 12:2.253966276098187 13:1.2041580384611865 14:-0.16754291430163612 15:2.2360938683451685 16:0.24987550793599902 17:-0.8502208476032731 18:0.670453091073451 19:-0.7494744844058369 20:0.23635154080316784 21:-0.6234168749729743 22:-0.570673403154933 23:-0.5606371959668845 24:-0.41493424480422525 25:-0.8472741204085209 26:-0.6655547094079007 27:-0.7458799562994791 28:0.38481266947318105 29:-0.7863450895363976 30:-0.051175118318259875 31:-0.7727499436291831 32:-0.6606077845882597 33:-0.8698377918880339 34:-0.7335660283311646 35:-0.7400077074128552 36:-0.72039795507025 37:-0.783569117335448 38:-0.7519090579083549 
0.0 0.014266160637837508 0.0 0.0 0.0 1:0.6684808160028621 2:0.17164612116599742 3:-0.2369180772502838 4:3.8528930098848377 5:-0.21953596946127046 6:0.6334120770971224 7:-0.1878431800535868 8:0.6446142400918703 9:0.3383111394837066 10:-0.1778995379615411 11:-0.2415992689816279 12:2.1460202470945826 13:1.8967322632708008 14:-0.18979440058782357 15:1.9709126346832824 16:0.23335735106516461 17:-0.811638664715942 18:0.6684842753591287 19:-0.7420411754839246 20:0.21766104646731205 21:-0.5808627463928748 22:-0.6876524519101429 23:-0.6030020755854792 24:-0.5119086746660638 25:-0.61040469958796 26:-0.758148736970804 27:-0.5431641982320935 28:0.3383135362855218 29:-0.7340216661479039 30:-0.0982527871200357 31:-0.6708594622748857 32:-0.6579048702705445 33:-0.8386180015903627 34:-0.7590397935636951 35:-0.6972484459874326 36:-0.7536249111915102 37:-0.7388882060013865 38:-0.7299667559630104 
0.0 0.0 0.0 6.0 0.0 1:0.5308404427154341 2:0.6511806375528515 3:-0.3641548607652246 4:5.175136554351126 5:-0.31043979229455954 6:0.7836485423955294 7:-0.2683139686849054 8:-0.39599297704916053 9:0.0054541524162949676 10:-0.17622327041167254 11:-0.41486470772797707 12:1.9482441282747631 13:0.496184636497449 14:-0.3243735136260214 15:-0.10637080213866944 16:-0.24207400757251313 17:-0.6358708815185222 18:0.530839717590064 19:-0.20953938539938674 20:0.6684528962377791 21:-0.16494136399352827 22:-0.022643276712367683 23:-0.16534540128840441 24:-0.4269499297851513 25:-0.2694138645258026 26:-0.5686515810595897 27:-0.4144055337728045 28:0.005456555152712681 29:-0.5768285263130366 30:-0.13613927683021057 31:-0.5240727995249157 32:-0.43177913745248103 33:-0.5317687479987481 34:-0.6188291651089768 35:-0.5758088131402538 36:-0.6480930091807244 37:-0.641686132076259 38:-0.6298635372321414 
0.0 0.0 0.0 6.0 0.0 1:0.5115707678399258 2:0.6892857205572008 3:-0.3771115804755917 4:5.3462247153426175 5:-0.18978513455463625 6:-0.3010559269738607 7:0.5989260174660147 8:-0.37416049903457976 9:0.019542112840394442 10:-0.1897818491821899 11:-0.39435211074479937 12:1.714731596496104 13:-0.03104013524715197 14:0.060845445354703875 15:-0.37347258900109587 16:-0.22071137894301646 17:-0.6091782446952533 18:0.5115670032739351 19:-0.12409597670536592 20:0.5991289074261832 21:-0.07035042239329588 22:0.09065606686277689 23:-0.18060361517908408 24:-0.17571242447616559 25:-0.45757927694435585 26:-0.3558041480436265 27:-0.6053507795925314 28:0.019541990270343097 29:-0.5183643096406264 30:-0.1953922741279085 31:-0.41539995005918734 32:-0.4753218314549429 33:-0.5126483299172157 34:-0.5090422755950639 35:-0.6717750674521668 36:-0.57945624057708 37:-0.6443268560957884 38:-0.610147116623612 
0.0 0.0 0.0 6.0 6.0 1:0.5850036562357146 2:0.8757815605602061 3:-0.4609009214579137 4:4.650488953032353 5:0.919959971311749 6:-0.4429183435694188 7:1.1747400150913416 8:-0.44257618555666967 9:-0.011357924930664502 10:-0.03299671734509258 11:-0.4658745206377131 12:2.100890862163219 13:-0.4359417290994439 14:0.20733241210154638 15:-0.44389662042745726 16:-0.5102766630312284 17:-0.6549872858978013 18:0.5850070492312364 19:-0.6459484198902442 20:0.974276332150265 21:-0.6389244953522588 22:0.4534904091772216 23:-0.6648707033443835 24:-0.00995320937487046 25:-0.657846778806398 26:-0.36175874057141516 27:-0.6378751379514032 28:-0.011357994282467648 29:-0.5545866255383273 30:0.005651750683015288 31:-0.5920419147011269 32:-0.2247329741629082 33:-0.639195297262157 34:-0.4336227974106593 35:-0.6571189986735465 36:-0.5815821909313075 37:-0.6719454032404748 38:-0.647534378290523 
0.0 0.0 0.0 6.0 6.0 1:0.6359704908904313 2:0.8775851445652364 3:-0.44422656036992214 4:4.736843240206944 5:1.1208789245155302 6:-0.4366916672626147 7:0.18400865602022756 8:-0.43494075996215575 9:0.07346966498560689 10:0.06780906326865664 11:-0.46363104490434626 12:2.1611465017710607 13:-0.4396047455289258 14:0.042761138605590374 15:-0.4531171059534098 16:-0.43494075996215575 17:-0.6481918479329722 18:0.6359678225824488 19:-0.5428987051724613 20:0.9675615849488555 21:-0.4931903303358776 22:0.399105255252439 23:-0.6680254908045852 24:0.04820735357992921 25:-0.576458341888221 26:-0.3409876090536355 27:-0.6540379863723081 28:0.07346785293166788 29:-0.6967266741884909 30:0.13704270311396985 31:-0.6779671657719019 32:-0.13492694425279933 33:-0.6731260023095564 34:-0.37651829089335015 35:-0.6897242770375982 36:-0.5378673531455236 37:-0.7010145618265684 38:-0.6430111723092116 
0.0 0.5786873392888818 0.0 0.0 0.0 1:0.8131325519017012 2:0.2087490849017226 3:-0.10066931248491068 4:4.193389856948536 5:0.6646759514432524 6:-0.0908115368367742 7:0.19865450190530073 8:-0.0615369859233603 9:0.5944422232483951 10:-0.015413044354378817 11:-0.1644224766920121 12:2.7991803698159403 13:-0.13530839549466173 14:0.8597663379777584 15:-0.09224635228898705 16:0.7296041234101491 17:-0.7157159075157272 18:0.8131288460280344 19:-0.6953596856659015 20:0.3853390696836727 21:-0.6632789136824276 22:-0.5416014110669338 23:-0.7645054186216502 24:-0.5292596097613311 25:-0.6446079835021568 26:-0.585351514413077 27:-0.725027477265908 28:0.594437664880519 29:-0.7853124297971215 30:0.10863746669427757 31:-0.743184165725112 32:-0.6665621492861616 33:-0.7096002256339046 34:-0.5964670469992127 35:-0.7936194114451234 36:-0.6672346192290952 37:-0.780486469030187 38:-0.6955555061231511 
0.0 0.0 0.0 0.0 6.0 1:0.8245643247600094 2:0.3434337141573439 3:-0.26225427147351305 4:3.8965597178098754 5:-0.15015448930472836 6:1.3222868340515022 7:-0.1592033096085072 8:-0.03889051387333088 9:0.41947447642827573 10:-0.09844232544222194 11:-0.25797943483619434 12:2.684129210822666 13:1.1767587360913863 14:-0.17534134479684907 15:1.0220919445468999 16:0.23666201557010347 17:-0.770917587736845 18:0.8245705591707609 19:-0.6912611273306618 20:0.5746616369986562 21:-0.6871967275213711 22:-0.48084232703441915 23:-0.7426861181380426 24:-0.49802991605845337 25:-0.7964188613795123 26:-0.6425916618177151 27:-0.8127109046828555 28:0.4194738968227319 29:-0.8027910136228918 30:-0.0015531461337455399 31:-0.6982188286991085 32:-0.6369083908979443 33:-0.7183686074146596 34:-0.6373561637582899 35:-0.7773024046493741 36:-0.633188431750458 37:-0.8440205608408656 38:-0.7300385984276434 
0.0 0.0 6.0 6.0 6.0 1:0.7522324619114077 2:1.0448000578342487 3:-0.4022902546307022 4:4.877577844689257 5:-0.18694583950120977 6:-0.34184198442911323 7:-0.15101946553138457 8:-0.38432983260555664 9:0.048891128617257265 10:0.00959832539450785 11:-0.4143253381752229 12:2.1276195535278832 13:-0.3551071728391246 14:-0.2706162614831489 15:-0.2888465860370781 16:-0.38432983260555664 17:-0.5869627145444545 18:0.7522317205287076 19:-0.5347926297523597 20:1.1820424402431067 21:-0.6041476276762275 22:0.5703242866684247 23:-0.6253969618301292 24:0.09265205163511464 25:-0.60372668207096 26:-0.310832729925857 27:-0.6222651265269392 28:0.048890546511508905 29:-0.4782007025802016 30:0.06306799449691715 31:-0.5248246378196262 32:-0.18896055828882025 33:-0.5712465191685223 34:-0.3972107681267411 35:-0.5928999611034808 36:-0.5412415164250574 37:-0.6189985886300636 38:-0.5885681197508016 
0.0 0.0 6.0 6.0 6.0 1:0.5923639400663316 2:0.9996263414667232 3:-0.45855223715777427 4:5.0468690465648285 5:-0.23405825908235975 6:-0.3051458140690926 7:-0.35473506771139207 8:-0.5090775420793143 9:0.08379762944255781 10:0.04787164133393293 11:-0.48344107232302025 12:2.070989230170632 13:-0.3576697339985618 14:-0.3692417567217519 15:-0.09893219188339016 16:-0.44099367379599674 17:-0.6460480720580091 18:0.5923662580411263 19:-0.3313446039257138 20:0.963219088580357 21:-0.007878145711672117 22:0.31116286106395397 23:0.05063993907783937 24:-0.2844858815797205 25:-0.14593520962316925 26:-0.614760726622094 27:-0.4431383156469212 28:0.08379678293181503 29:-0.6247350133256 30:0.13171080523619982 31:-0.5330430637150421 32:-0.20128739453750646 33:-0.5695360171149003 34:-0.43151299513754476 35:-0.6153394395025023 36:-0.5858931664699673 37:-0.6762064177477881 38:-0.6514217524354972 
0.0 0.0 0.0 6.0 0.0 1:0.30999628608471025 2:0.6463950906769571 3:-0.44254460033333104 4:5.226389222872823 5:-0.3255555597849681 6:0.6419336456681192 7:-0.3546029856723209 8:-0.3483086766042759 9:0.0684640847548196 10:-0.07419690898102746 11:-0.4728897199542071 12:2.1361588638115743 13:-0.052137618997050154 14:-0.387830697273309 15:0.23722688825864488 16:-0.11627300114647049 17:-0.6634548641581985 18:0.30999587097580616 19:0.2051544182814545 20:0.25695638282740946 21:-0.15515831309194109 22:0.022774377371619435 23:-0.1213777860065422 24:-0.19771752323216019 25:-0.40386188457013206 26:-0.5618201706380331 27:-0.463224344874754 28:0.06846606913051893 29:-0.33254958697943326 30:-0.23138203247983002 31:-0.23091796112891455 32:-0.4965988095281017 33:-0.5231862306743086 34:-0.6083046509547467 35:-0.5390033292180156 36:-0.6522754114540009 37:-0.7026464893346329 38:-0.6720920436437474 
0.0 1.0921422495830406 0.0 0.0 0.0 1:0.660075199465693 2:0.02346798065149374 3:-0.18661491163792354 4:3.0747680045182464 5:-0.07541568464077085 6:0.7121692367600191 7:-0.08394835472956595 8:0.46561585418114065 9:0.694482742831397 10:-0.009082297283880022 11:-0.14153214845723408 12:3.275594714141239 13:0.8600572073095909 14:-0.0832379117479318 15:2.0832148795365018 16:0.46561585418114065 17:-0.8127444332460699 18:0.6600696510921304 19:-0.5210246593027862 20:0.04007838784505852 21:-0.7416363914899952 22:-0.8356647484460529 23:-0.7744543035869602 24:-0.5071351023805727 25:-0.8377240833840466 26:-0.6346386059882744 27:-0.7302005102385827 28:0.6944868339388142 29:-0.8102516789984696 30:0.09059781728137464 31:-0.7335304986489556 32:-0.8047747243761457 33:-0.8389071055824686 34:-0.6629873231134231 35:-0.7069344070029505 36:-0.7438271733389247 37:-0.757848177172074 38:-0.7661791289397764 
1.3225022191339455 1.4504049763934028 0.0 0.0 0.0 1:0.7248702072774906 2:-0.017084540139988814 3:-0.17350580180923778 4:2.8559964689896593 5:-0.12812925186504617 6:1.187323463809151 7:1.4447457951413618 8:0.9402777881703084 9:0.6012440968998327 10:-0.04927925695248875 11:-0.24152210299972557 12:3.0287572888465215 13:2.0023240678746337 14:-0.10550727288287884 15:-0.15660082913064052 16:0.24688547869226732 17:-0.8817764752754841 18:0.7248711335290207 19:-0.6122709297703679 20:0.01724261319700862 21:-0.5789014248767372 22:-0.8238855952191976 23:-0.6135710403506393 24:-0.8265291533990825 25:-0.8469408895093424 26:-0.7126394665673145 27:-0.8470709005673696 28:0.6012522858548887 29:-0.6031268186891263 30:-0.030081411924867626 31:-0.5749577561165808 32:-0.7383816560566866 33:-0.869042769373955 34:-0.8508412212501565 35:-0.6652287674067534 36:-0.8576017962675674 37:-0.7727045753758497 38:-0.7986089845050564 
1.427361699435639 0.4460335705161206 0.0 6.0 0.0 1:0.21943283669686348 2:0.367123554952005 3:-0.4056040691512205 4:3.8816300033830426 5:-0.3603913222897271 6:3.8816298359009527 7:-0.3711713132612597 8:-0.3013641629147368 9:-0.10097503447663254 10:-0.268362616316815 11:-0.4381922462151493 12:1.2598421295538862 13:0.7805647446515118 14:-0.40600626185333355 15:0.4439058293003268 16:-0.3013641629147368 17:-0.6411371638210569 18:0.21942955257542743 19:-0.10647075913286874 20:0.2429105964013641 21:-0.3057895219465395 22:-0.0948079400122648 23:-0.2450481391153741 24:-0.24025276678659785 25:-0.37101546593702345 26:-0.4764692555744635 27:-0.5528103990060306 28:-0.10097236153984296 29:-0.4856307848075267 30:-0.2830855060442472 31:-0.42676906952498644 32:-0.5196720081290862 33:-0.5535652261318564 34:-0.5382318751052757 35:-0.5838471143561655 36:-0.6014005451645871 37:-0.6110208908858974 38:-0.6050411010000771 
0.0 0.21579155752688475 0.0 0.0 0.0 1:0.8033574758945355 2:0.11348705742063712 3:-0.18413009547009165 4:3.3176560178001684 5:-0.15945127159692107 6:2.3674097464296264 7:-0.11245905611551978 8:0.50940235978469 9:0.4701926841828417 10:-0.07340817494196819 11:-0.1788068165077345 12:2.834713478654968 13:0.9191058959339183 14:-0.12124091302494981 15:-0.0021227265049260234 16:0.9808686778177398 17:-0.806260596918682 18:0.8033616090782965 19:-0.6463580300134953 20:0.14468387392628998 21:-0.5433426395232741 22:-0.7682713620848749 23:-0.6562588226921895 24:-0.7800973088955373 25:-0.5537934762396733 26:-0.8582428511095151 27:-0.6000364642667483 28:0.4701920776682745 29:-0.6819930258848268 30:-0.04751722839185009 31:-0.5753630602896853 32:-0.6641558835192432 33:-0.8743905725021471 34:-0.8534888990693487 35:-0.6674168588856383 36:-0.8823662110488729 37:-0.6931510620782757 38:-0.7503075470160093 
0.0 0.511725101256548 0.0 0.0 0.0 1:0.7822918320177246 2:0.10415225222855416 3:-0.15723352969633614 4:3.12925674285399 5:-0.07831693908439381 6:0.9301880131196979 7:-0.1476348970198876 8:0.7256643596730801 9:0.5188634166975941 10:-0.05274327710444358 11:-0.25394735939990715 12:2.9234757713456005 13:0.24057425580795636 14:-0.10431815621740125 15:2.4213372166043547 16:0.7256643596730801 17:-0.799965762268742 18:0.7822967703972831 19:-0.776026245152526 20:0.1951102228670114 21:-0.8077857659020075 22:-0.6446536357257809 23:-0.7749729957399157 24:-0.45178746443970835 25:-0.7858295666083609 26:-0.7793885413543206 27:-0.684028959920291 28:0.5188628884663166 29:-0.8132545609290228 30:0.029669045901600702 31:-0.802479009246163 32:-0.625371069556453 33:-0.8365475767848286 34:-0.7203660646553481 35:-0.7469403575273633 36:-0.6601283001725946 37:-0.7878145366552035 38:-0.7358725764928468 
0.42895804134793897 0.012592462150886434 6.0 1.8741513468291338 6.0 1:0.22701077877938225 2:0.13724718201217578 3:-0.307767975372756 4:3.7439668742695753 5:-0.2809904520342941 6:-0.23180778618796413 7:1.9029737141240335 8:-0.5082014802656938 9:0.49011413544771576 10:0.1945075163500506 11:-0.2401406090170368 12:3.1300732014231847 13:-0.21573478513274075 14:1.6077442773322146 15:-0.21725377884971298 16:-0.060445388968236924 17:-0.7050959247703458 18:0.22701402164473042 19:0.10593331195637642 20:-0.14619068045169986 21:-0.436336627612452 22:-0.6723040877262118 23:-0.640998474342998 24:-0.5626784713735511 25:-0.5643575567159165 26:-0.6132375966825555 27:-0.6694309861403864 28:0.49010803828959454 29:-0.507343281090707 30:0.3145876505009913 31:-0.6896919492715964 32:-0.2563759919184824 33:-0.7345794974241664 34:-0.6337224378594143 35:-0.6039466577881333 36:-0.784840118672306 37:-0.5845065808243021 38:-0.7033015256363566 
0.0 0.0 0.0 0.0 6.0 1:0.5500639655281363 2:0.18652140585415786 3:-0.34990786051978556 4:3.499057795249598 5:1.578025027759185 6:-0.31070335106934943 7:1.663496502162779 8:0.26711660113019414 9:0.41178755080617224 10:0.0024373825162664585 11:-0.33056085489798903 12:2.732052987141153 13:-0.2878112233134511 14:1.5918998345230648 15:-0.3052365895208052 16:-0.00898818275460817 17:-0.768109930541647 18:0.5500722349651382 19:-0.7435994733781104 20:0.3746594144533247 21:-0.7107775171938044 22:-0.5734499003091009 23:-0.7209933941975422 24:-0.46911680509863124 25:-0.7026324260692028 26:-0.5266501394406269 27:-0.7198889750620029 28:0.4117955078858306 29:-0.7888116317392467 30:0.20399214491453121 31:-0.7422879756546575 32:-0.4975555978387659 33:-0.7716586220404034 34:-0.7057386048879069 35:-0.8115212502137717 36:-0.6901386845984155 37:-0.7853603219406867 38:-0.701479042609028 
0.0 0.0 0.0 0.0 3.212015640974093 1:0.5738187307759534 2:0.19401575315454883 3:-0.3356231883924662 4:3.4741482600072096 5:1.7297164354900172 6:-0.2758061071368929 7:1.7684693455673035 8:0.012045191437375743 9:0.4257310830142185 10:-0.01198538508563974 11:-0.318454196994507 12:2.7497657799946227 13:-0.2942682644690219 14:1.363254445751339 15:-0.268447056159903 16:0.012045191437375743 17:-0.7663322456582355 18:0.5738133018222078 19:-0.7771488257896348 20:0.37400047875475784 21:-0.7057172963337743 22:-0.5778513048003487 23:-0.7013105751136118 24:-0.42763186449690505 25:-0.699213828726599 26:-0.48189850403874523 27:-0.7303807199369422 28:0.4257261459801331 29:-0.7925368119858475 30:0.19158354308464268 31:-0.7818043135302903 32:-0.5608285671837532 33:-0.7648881901367631 34:-0.6489274535126476 35:-0.8078181839589917 36:-0.630234426401313 37:-0.8089554023383885 38:-0.7000709740904913 
0.0 0.0 1.2026732607839192 0.0 6.0 1:0.4095528173996892 2:0.3448708288376313 3:-0.35378519456860885 4:4.9239711287231405 5:-0.2573574549839512 6:-0.28194566391464604 7:0.40565482536380293 8:-0.29805067829550025 9:0.3856618542034413 10:0.06446504357623538 11:-0.33638853175690847 12:2.6250594862907755 13:0.05563170959670358 14:0.5042978862730941 15:-0.08949364188052814 16:-0.29805067829550025 17:-0.6094727988574365 18:0.40955174166290353 19:-0.47987866339233065 20:0.3714602850826634 21:-0.3367293356139078 22:-0.2138001376019394 23:-0.5604272863887503 24:-0.3293765611533788 25:-0.6484563361800829 26:-0.441072353739539 27:-0.6349762496691131 28:0.385667989899623 29:-0.4106910981561034 30:0.20745256586586475 31:-0.6593578455364921 32:-0.5034943452534045 33:-0.5757455665148522 34:-0.5496023684329715 35:-0.5207274103952693 36:-0.5513384401805964 37:-0.539211468414099 38:-0.6138680535996605 
0.8052424464252501 0.0 6.0 0.0 6.0 1:0.5428375286566401 2:0.2931577709377116 3:-0.40692885310135585 4:3.5339908584443327 5:0.0038982551513855887 6:1.8340979675526563 7:-0.3807587370960405 8:-0.17994876816534736 9:0.5540410989774447 10:0.24030890262210344 11:-0.3802070505606846 12:3.6178175448037853 13:0.17574707412771878 14:-0.3802070347419297 15:0.0843697727020873 16:-0.17994876816534736 17:-0.7798210030452427 18:0.5428297877504041 19:-0.5730209751758735 20:0.36771967860307236 21:-0.4470761903106389 22:-0.3178048320309008 23:-0.7186032740686609 24:-0.36255260989696403 25:-0.82773634382834 26:-0.586112651194242 27:-0.7976898742779859 28:0.5540435594218756 29:-0.3264610768299315 30:0.26230664793057973 31:-0.6255665272823856 32:-0.6846221477914747 33:-0.6678104326859192 34:-0.5215842808741957 35:-0.4435707688630976 36:-0.6074313367323505 37:-0.6427717080606241 38:-0.7689312029022649 
0.0 0.0 6.0 6.0 0.0 1:0.3227518136600457 2:0.5521229256599681 3:-0.4366485745091275 4:5.312247348852256 5:-0.42137924163914775 6:-0.3965164872012183 7:0.2301291423368407 8:-0.31214624468011376 9:0.16205137382020274 10:-0.04131451603442337 11:-0.4183462285841746 12:1.63690617323416 13:-0.16654682670294174 14:1.2675759199832395 15:-0.36355384913394156 16:-0.46498565914378265 17:-0.6414435424193591 18:0.32274868300196685 19:0.05680810183518284 20:0.18206000198815958 21:0.059559211295528984 22:-0.43613721966376523 23:-0.045632515709091125 24:-0.375746546023808 25:-0.23765613505588315 26:-0.30651029127176604 27:-0.4870518496069749 28:0.1620475911568228 29:-0.2923153306534527 30:-0.05111562970297536 31:-0.576520221848645 32:-0.5798444791132298 33:-0.37916632792243266 34:-0.4725512101597343 35:-0.5531548963625117 36:-0.5499070588051587 37:-0.6302814858862406 38:-0.6305359189904728 
0.7959698599013013 0.0 0.0 0.0 0.0 1:0.5172218040713302 2:0.6794476310887677 3:-0.42763032565795267 4:5.219329635110594 5:-0.4249671059070035 6:1.4646488010267273 7:-0.24696647318111695 8:-0.030302751142707623 9:-0.06277822950400903 10:-0.21811751741294136 11:-0.5026890886399394 12:1.5493552880280765 13:0.1261939574823017 14:-0.42893607669276457 15:-0.07221761088269821 16:-0.4030606608813701 17:-0.6374437990654417 18:0.5172227045769267 19:-0.1553630298600289 20:0.09401201175513635 21:0.3447476197408477 22:-0.3166740152994351 23:0.0015307743489741251 24:-0.026202414135582355 25:-0.36291463400251617 26:-0.2996576167198652 27:-0.5788532911141233 28:-0.06277928402868858 29:-0.5277668195844396 30:-0.2891644815607218 31:-0.3166367395084612 32:-0.5638125094561683 33:-0.5298915396699501 34:-0.5716777013516541 35:-0.5971557044822917 36:-0.5870726030238608 37:-0.6387741251046133 38:-0.6342040793593373 
6.0 0.18604846005838208 6.0 6.0 0.0 1:0.37842899462594276 2:0.6770854645848299 3:-0.47338465171238586 4:3.9827036330238306 5:-0.3301648169629694 6:-0.4583374993543471 7:3.819184011344597 8:-0.3843414652562478 9:-0.13023738245958982 10:-0.2031660091461974 11:-0.5160838669733173 12:1.1620762678082879 13:-0.1637826024496898 14:0.14160102317781725 15:-0.5052425822052561 16:-0.3843414652562478 17:-0.6468336126079647 18:0.3784317547794806 19:-0.36281119598009465 20:0.10754907059024969 21:0.5494487859221503 22:-0.37768665475270957 23:0.005189675917090561 24:-0.12144020412191417 25:-0.28543271306640466 26:-0.2657437530145421 27:-0.48929609104080857 28:-0.1302407923041532 29:-0.5627889765363107 30:-0.40376945234718736 31:-0.31625651945098493 32:-0.4914273702216804 33:-0.38241316504498285 34:-0.5368511639201233 35:-0.5706616608574898 36:-0.5745762552713359 37:-0.5081586367164149 38:-0.6262281227429207 
0.0 0.0 0.0 6.0 0.0 1:0.2913497158778633 2:0.5015738537155405 3:-0.499697209626635 4:3.24445857723006 5:3.130101205455883 6:-0.48647921228908303 7:3.025964721846094 8:-0.3770889441155917 9:-0.2315875461612663 10:-0.2809553663719029 11:-0.548866495088802 12:0.8780941442710339 13:-0.5026404604054123 14:0.8420635584108238 15:-0.4973723246009469 16:-0.42671257687559966 17:-0.6718405194036341 18:0.2913475921158108 19:-0.3918519748616941 20:0.4577790534387826 21:-0.42539755060745943 22:0.15852373607955453 23:-0.44520978598689265 24:-0.09249741023694595 25:-0.40202481957749564 26:-0.4280772267764999 27:-0.5686609783856025 28:-0.23158624990915325 29:-0.5694921742343326 30:-0.2666143316836239 31:-0.5423728589309883 32:-0.4628261756166955 33:-0.5132561924090535 34:-0.5581407682404808 35:-0.5388867987295978 36:-0.6296236112312723 37:-0.6004697269847676 38:-0.6310268691000125 
0.0 0.0 0.0 6.0 0.0 1:0.3138173279513909 2:0.4672811715279195 3:-0.44053863392597276 4:3.953667439336037 5:3.9536672751397477 6:-0.13725273350580905 7:0.033712708390631084 8:-0.04203808924824558 9:-0.10098999735652256 10:-0.21824041908629271 11:-0.4565791495403945 12:1.2198729185638069 13:-0.42837021515120355 14:-0.24211057477893752 15:-0.37251562193891163 16:-0.4029935198011244 17:-0.6079200053473025 18:0.3138188458480739 19:-0.0033256193214493495 20:0.2955304373667281 21:-0.1910976422569782 22:-0.12367417579162164 23:-0.17341082615988715 24:-0.1563707218758699 25:-0.47016130950317264 26:-0.41845444407647275 27:-0.499488938235594 28:-0.1009866230004126 29:-0.4568661178111416 30:-0.20989740426494063 31:-0.3979401437733841 32:-0.5617687898155721 33:-0.5220486526451489 34:-0.52656059552706 35:-0.5896225172065691 36:-0.53753965653971 37:-0.5719507409190845 38:-0.5906542457195516 
0.0 0.0 5.258820651232516 0.0 6.0 1:0.8143513622602132 2:1.0172555325926957 3:-0.48847371549723395 4:4.742150060147306 5:-0.4677577203088719 6:0.6855538511621614 7:-0.44378100394691455 8:-0.19405797192766727 9:-0.08447201271344174 10:-0.16133088589535224 11:-0.4975767934727091 12:1.5684499709096973 13:1.3060216192549203 14:-0.42028835613564997 15:0.13166006010960993 16:-0.4638155828284808 17:-0.6954977222968942 18:0.8143549870969581 19:-0.3538050571329928 20:1.1567701245088378 21:-0.573724949419881 22:0.47625597145949183 23:-0.6981000678958373 24:-0.007958940107468624 25:-0.6518197777756665 26:-0.44725920945944336 27:-0.6133793182223006 28:-0.0844689424992118 29:-0.6046627754200681 30:-0.13604322573331104 31:-0.4797144220209475 32:-0.43930135993786934 33:-0.474589027413832 34:-0.6307618242747217 35:-0.5522454996519038 36:-0.7097839444179788 37:-0.6592549719261201 38:-0.6788984611691244 
0.0 0.0 0.0 6.0 6.0 1:0.3904141303843674 2:0.8841879017074166 3:-0.5194407688807897 4:4.800335249686606 5:-0.4737555421605412 6:1.5372976687023718 7:-0.4956489589283643 8:-0.489354690876195 9:-0.04802936825595912 10:-0.1694733412868428 11:-0.5252272821607861 12:1.6507125922235386 13:0.3434194098584825 14:-0.5135027089035485 15:1.2182406780448738 16:-0.3467186674478294 17:-0.7371034835890714 18:0.39041538687849947 19:-0.09500174510262122 20:0.7552515905538659 21:-0.19812759004132965 22:0.24830533378652625 23:-0.30130692348882343 24:-0.1892306680799853 25:-0.41598628632522944 26:-0.4948640072811156 27:-0.5018888314349627 28:-0.048029919637367656 29:-0.6159798206747265 30:-0.12809330253800205 31:-0.5864006753162694 32:-0.41352581492109014 33:-0.6410302722893332 34:-0.5265470339851414 35:-0.6297798559414208 36:-0.6760652455439256 37:-0.7297677083647053 38:-0.708699428370576 
0.0 0.0 0.0 6.0 0.0 1:0.18518477572466158 2:0.470173186533563 3:-0.4450689958762114 4:4.4429387292726235 5:-0.4134024097631063 6:3.130072247150375 7:-0.3697459594176931 8:-0.3492504005900501 9:-0.007354872072518732 10:-0.13777568056221076 11:-0.4423857058800146 12:1.3344351422901086 13:1.0091315920385344 14:-0.43946125108498446 15:-0.20765699462993803 16:-0.41097412372775244 17:-0.6314922882721287 18:0.18518445619774576 19:0.22507341227548605 20:0.17279341877785195 21:-0.22575666152229212 22:-0.09382220331545334 23:-0.25492112070485645 24:-0.22402839727443644 25:-0.5108122459029859 26:-0.4953504532569915 27:-0.5863929448851025 28:-0.007354982664924496 29:-0.4038913264977011 30:-0.18417030305826512 31:-0.27649356194148345 32:-0.6154185256906071 33:-0.4859838782708452 34:-0.5341438132490375 35:-0.536118972389444 36:-0.6435645434413994 37:-0.6089529656919327 38:-0.61324137862658 
0.2371909564592115 0.0 0.0 0.0 0.0 1:0.8310853280142861 2:0.25080398439987145 3:-0.37349705278227674 4:3.827547099377045 5:-0.35741878131693333 6:0.7155684738996704 7:-0.33317224798547534 8:0.5295218806090376 9:0.30593419442664627 10:-0.08814981553861724 11:-0.33948128315753806 12:2.4379292246563917 13:1.5640275229836884 14:-0.3151965456933436 15:1.9410495520612596 16:-0.306631808018461 17:-0.8037853179813419 18:0.8310772244388426 19:-0.1934723421575396 20:0.2204237337130722 21:-0.4817711660488958 22:-0.7435917898003814 23:-0.7059648738121439 24:-0.6903218318874044 25:-0.36439609200781076 26:-0.6411629629435128 27:-0.7464834879735515 28:0.30593786824374697 29:-0.5253208373315781 30:-0.06982611545174815 31:-0.3532822158964702 32:-0.6872907747661299 33:-0.697394298503712 34:-0.8455328603388839 35:-0.7733100854836837 36:-0.7959210748136524 37:-0.7942836071734235 38:-0.7342468179590553 
0.0 0.0 0.0 0.0 6.0 1:0.543380275702275 2:0.194421423704016 3:-0.3291407978109 4:3.388248761745781 5:3.0617728829497595 6:-0.3010408740504663 7:0.7473447579520909 8:-0.28268094533693816 9:0.442898500251043 10:-0.04108628188473539 11:-0.3088587482741376 12:2.5606992125671644 13:-0.3005225803604397 14:0.9050192935765834 15:-0.2770747536078027 16:0.1131699737380527 17:-0.7480161822843183 18:0.5433774538310938 19:-0.6181975868295825 20:0.35292368039113886 21:-0.5393572787804801 22:-0.5159031118252869 23:-0.7383713283454318 24:-0.6080704008165807 25:-0.5362564465810594 26:-0.644785573560786 27:-0.5767981782096564 28:0.4428972955392253 29:-0.6709117342197354 30:0.06415043492593298 31:-0.5595456756533047 32:-0.7484325392052544 33:-0.5082170064799142 34:-0.6052334692298765 35:-0.7514673962514961 36:-0.720261148797751 37:-0.7441441542486088 38:-0.685929754229612 
0.0 0.0 0.6946059455820046 0.0 0.0 1:0.4838748768567747 2:0.2159556679668211 3:-0.3875592228235173 4:4.60852301593812 5:0.4862716970814904 6:-0.35148835892373353 7:1.6359738068174767 8:-0.25832049891594433 9:0.3590154963014464 10:0.022136973942710452 11:-0.3733047024181057 12:2.5765194033182106 13:-0.35527236375524796 14:0.3900638442091749 15:-0.299004029767226 16:-0.054051835619072855 17:-0.6831091818686029 18:0.48387692238178215 19:-0.4412175533153806 20:0.20674818024520775 21:-0.2745853912309577 22:-0.49680416331504174 23:-0.6088710587162879 24:-0.5192481826947855 25:-0.4996128574353737 26:-0.7328621373374888 27:-0.48439484201975685 28:0.3590177019415693 29:-0.46498931900655394 30:-0.007299845307001411 31:-0.39673805188248684 32:-0.645001078536922 33:-0.3724300809501591 34:-0.503187559043069 35:-0.6473757017477481 36:-0.6158927940171178 37:-0.6809778968600835 38:-0.6743788794931034 
6.0 0.0 0.0 6.0 0.0 1:0.578702398221053 2:0.7414210329964285 3:-0.5259992229900686 4:4.701717794312279 5:0.817350528323482 6:1.0144569711005007 7:-0.5165244496397531 8:-0.16745628954854924 9:-0.038987231351851136 10:-0.15985453316688156 11:-0.5487975442275022 12:1.6913637259908894 13:-0.46960667251023885 14:-0.47832199378537504 15:1.6913638384352676 16:-0.44279849761860646 17:-0.7541789821109163 18:0.5787038854333016 19:-0.6273638214655667 20:0.07157516483226921 21:0.3451964841018884 22:-0.2559271827790595 23:0.2866346382229883 24:-0.5969040896978166 25:-0.15380964136107703 26:-0.5585626872240612 27:-0.43839302228948557 28:-0.03898333615186099 29:-0.6555347711287345 30:-0.46436123428809284 31:-0.1437252329905111 32:-0.6607662730820655 33:-0.5023756678897651 34:-0.5627272381211208 35:-0.6839294363359592 36:-0.5788519661812235 37:-0.7623847567479209 38:-0.7313606872862872 
0.0 0.0 6.0 6.0 6.0 1:0.5394227873444583 2:0.8256985041034793 3:-0.5284987576961623 4:4.168969627338184 5:-0.5062739138439261 6:2.773495979027315 7:-0.5079997612477811 8:-0.500900277856702 9:-0.1674589954456273 10:-0.22948765613104358 11:-0.5325292190125451 12:1.4031953434944455 13:1.4031954447349355 14:-0.5235560339756422 15:0.3971864774782049 16:-0.500900277856702 17:-0.7267478191462564 18:0.5394192480280372 19:-0.2511074089146241 20:0.9034433399220063 21:-0.33913700583649614 22:0.05785091002942008 23:-0.3318755852277148 24:-0.41140326885347206 25:-0.3324655756521784 26:-0.41285555297522836 27:-0.43863359613640207 28:-0.1674573562974233 29:-0.65924463100694 30:-0.20362074372511457 31:-0.5448016166206259 32:-0.4752281304127397 33:-0.5255285960881521 34:-0.6195488650122688 35:-0.5564652734734808 36:-0.6902872041094802 37:-0.6414390225558241 38:-0.6864255163899288 
0.0 0.0 0.0 6.0 0.0 1:0.2899923297829876 2:0.5193436200713061 3:-0.4509052118265083 4:4.819930396251006 5:-0.4281896707942687 6:2.4353905546881616 7:-0.43786080723721504 8:-0.2864563680171272 9:-0.04415269015851651 10:-0.19157809743755455 11:-0.455121707744697 12:1.3294749245614248 13:0.5474835425303957 14:-0.4424899821272803 15:0.8244233173699865 16:-0.4204464427758552 17:-0.6582831330440673 18:0.28999405673393763 19:-0.048188517577419245 20:0.34420141635351553 21:-0.39487108725628295 22:-0.045140243376658146 23:-0.24975983629258056 24:-0.16827712207992915 25:-0.445954803258048 26:-0.4693025737847563 27:-0.5737813345778745 28:-0.04415206657531257 29:-0.5084779218923394 30:-0.17551258611690043 31:-0.3877361157753807 32:-0.5800286218135001 33:-0.5249252035689733 34:-0.5323616527180827 35:-0.5974473315321348 36:-0.5848187669861247 37:-0.6193882062738765 38:-0.6346260557234626 
0.0 0.0 3.8679840067386997 0.0 0.0 1:0.6119059190866663 2:0.1913169294030537 3:-0.3794991053255996 4:3.627946187883953 5:-0.35471556908443014 6:1.108167672095324 7:-0.33160252931876144 8:0.35263956551757347 9:0.36021615106183114 10:5.195995083289481E-4 11:-0.36998699105056765 12:2.8690868877960627 13:1.124717696471243 14:-0.3135727852183931 15:2.1144937243425668 16:-0.32532888234755464 17:-0.798112745463538 18:0.611911649192395 19:-0.6229231325379526 20:0.19341867553644804 21:-0.4632615630657149 22:-0.6586859681628381 23:-0.4790921263233657 24:-0.5437364178273058 25:-0.6139400506037397 26:-0.726618406638924 27:-0.4997701639832521 28:0.3602158629224663 29:-0.537973686020452 30:0.11850316204735148 31:-0.4923125110567357 32:-0.5516008518225411 33:-0.7600761495410681 34:-0.8233306057268844 35:-0.7088217348824645 36:-0.8207882240473903 37:-0.7294997725423508 38:-0.7398097102734437 
0.0 0.0 0.0 0.0 6.0 1:0.6501976997501805 2:0.2153305292463556 3:-0.36373759065892214 4:4.127657002251471 5:-0.3193648149930479 6:2.046532025521848 7:-0.2507257238775077 8:0.18466644354873946 9:0.26223330063713624 10:-0.10715784041502749 11:-0.35393228740105204 12:2.39536772462354 13:0.7893645603664502 14:-0.30030743093479867 15:1.2593057154628606 16:-0.31350877052071585 17:-0.7410012028193627 18:0.6501956131212056 19:-0.5277241125705816 20:0.2662426348526127 21:-0.41277018192405474 22:-0.5926425701540075 23:-0.5350099250763474 24:-0.5599498217306995 25:-0.4875587359362318 26:-0.7242542345209817 27:-0.5168265297628123 28:0.2622260971891778 29:-0.6835595467216831 30:0.006631076420667866 31:-0.5510760757300873 32:-0.4607818181799986 33:-0.7024279329545637 34:-0.7505952489649041 35:-0.721171775383927 36:-0.774507659240238 37:-0.6737205862438113 38:-0.6916380062768859 
0.0 0.0 0.0 0.0 6.0 1:0.7388856449510502 2:0.33265866039854897 3:-0.3403255955031679 4:4.467059600997841 5:-0.21157913030614228 6:0.7059213076934511 7:-0.23728880493216817 8:-0.2807496569060006 9:0.37014389254312346 10:-0.04830414646909692 11:-0.29083211707044065 12:2.652985140231725 13:1.283982910731491 14:-0.058619218322721794 15:0.27923805092355136 16:-0.2807496569060006 17:-0.6838615865952017 18:0.7388921906044358 19:-0.5279913418734357 20:0.5120106520948452 21:-0.5596979456324173 22:-0.49577692464083656 23:-0.6491683320153697 24:-0.4320463337018623 25:-0.6037825028108214 26:-0.5960383473381571 27:-0.5296734740047929 28:0.37014026290300517 29:-0.597942647864222 30:0.06024709062803291 31:-0.528530893689154 32:-0.44607468091054087 33:-0.7061703944289144 34:-0.710613762323066 35:-0.6666561585130663 36:-0.7244516794791381 37:-0.6397420444113481 38:-0.6654980280530194 
0.0 0.0 3.4499584052653813 6.0 0.0 1:0.3605245996185126 2:0.5877019773193513 3:-0.4702746051256504 4:5.022443809292573 5:-0.41665566990179426 6:0.16675951912520856 7:-0.3956498332295091 8:-0.36172524986084104 9:0.184129179428998 10:0.010650574425989061 11:-0.4633119403938801 12:2.3345878185478606 13:-0.09598700674902182 14:-0.3155765803162365 15:0.9941079051948514 16:-0.13829975528874297 17:-0.6704813018895976 18:0.36052558953028746 19:-0.23424238641624473 20:0.5439486111783728 21:-0.2531218407075871 22:-0.07346912428040588 23:-0.289651909070125 24:-0.3898582433857111 25:-0.3141542383081985 26:-0.4498666074695338 27:-0.3752052547000243 28:0.18413116156561607 29:-0.2940273250054953 30:0.10670491830077686 31:-0.5599781387111493 32:-0.5291081828777712 33:-0.6378419235695255 34:-0.5791182560794925 35:-0.6295379426879293 36:-0.5784479795957762 37:-0.6751725999542803 38:-0.6654517679538875 
0.0 0.0 2.3958273155430434 6.0 0.0 1:0.3070464252465752 2:0.5391458105312259 3:-0.48238167609110844 4:4.942119793959111 5:-0.42203322923403697 6:0.7240904206706141 7:-0.47373549780929464 8:-0.09203693245190506 9:0.17613917662252934 10:-0.010596408218549 11:-0.4894296111009664 12:2.317183021081983 13:0.9694388367082996 14:-0.41603221386474415 15:0.3628497595066147 16:-0.46238781216090064 17:-0.701084109828623 18:0.3070439167505158 19:-0.016707563519095404 20:0.3710312899922376 21:-0.33820916219447444 22:-0.20206817881344766 23:-0.26673144241063823 24:-0.24899163527257737 25:-0.3731147326070472 26:-0.36733725888358687 27:-0.5800482866444485 28:0.17614339831737139 29:-0.33626482007600217 30:0.0815465248677012 31:-0.518477452892828 32:-0.5423095320021019 33:-0.7061712787293469 34:-0.6228238132508376 35:-0.6028063482025663 36:-0.6786356908229831 37:-0.633508436130442 38:-0.6898552510422262 
0.0 0.0 0.0 0.0 5.7280203490903245 1:0.584215042754068 2:0.2928128803099334 3:-0.39310855196133887 4:3.6700914604238397 5:-0.3802740028662776 6:1.7413724577010075 7:-0.3430615995683241 8:-8.405414884861008E-4 9:0.26295063651715794 10:-0.11892383220420241 11:-0.4071731951498825 12:2.6106266326009195 13:2.145270699520533 14:-0.2733563475609737 15:0.8706544729616161 16:-0.11892383220420241 17:-0.7754498241749195 18:0.5842178827738698 19:-0.4138368507667039 20:0.3974543980956251 21:-0.5565109867739682 22:-0.5471824068074265 23:-0.45678964776454567 24:-0.32468396627633805 25:-0.6593320121646781 26:-0.5232114987921361 27:-0.7632748288171873 28:0.26295752997042415 29:-0.6513318692186884 30:0.019764992741406407 31:-0.6273609612033979 32:-0.5524371132442759 33:-0.7778285943978994 34:-0.7707731177776354 35:-0.7736071167548125 36:-0.7375031506184823 37:-0.7799245728081033 38:-0.7156886650055244 
0.0 0.0 5.26764601540073 6.0 0.0 1:0.17816785455922346 2:0.3879776157586122 3:-0.39265675604201294 4:5.233849246066293 5:-0.3560992301230905 6:-0.21570060170849736 7:-0.3742944878770903 8:-0.3628230244043089 9:0.2623023096106336 10:0.019447656986036295 11:-0.39678488901931874 12:2.3055023166599993 13:0.4256085789793166 14:-0.315154864667685 15:0.5512264165820944 16:-0.05700647929203275 17:-0.5988862949078718 18:0.17816644389930766 19:-0.3703346432936292 20:0.14817730894423503 21:-0.04121870015061148 22:-0.375686432833094 23:-0.09618922413454314 24:-0.5217138331242058 25:-0.3052530597869229 26:-0.43371512226814846 27:-0.44537437805055397 28:0.26230422087332267 29:-0.18447463800164338 30:-0.0088594869709188 31:-0.4508217352603664 32:-0.566535070517224 33:-0.4168760987529037 34:-0.4502101021701418 35:-0.4679092347185148 36:-0.5712178863642556 37:-0.5668408870623362 38:-0.6100928074171471 
0.0 0.0 0.0 6.0 0.0 1:0.06752867992725438 2:0.30804856328116 3:-0.45136720701022803 4:4.763367315482932 5:-0.4333346606201818 6:2.4435911702468958 7:-0.4367143961671798 8:-0.35347275831004643 9:0.16485130379442536 10:-0.0659410173608812 11:-0.43689814351027534 12:1.9313586412153159 13:0.43200200562074326 14:-0.41499438889157986 15:0.4156569134549466 16:-0.14361771352251607 17:-0.6570568326149681 18:0.06753143737453737 19:0.046668348338577095 20:-0.009642755346076861 21:-0.3752627071271517 22:-0.29919025339167193 23:-0.3803866678040471 24:-0.2662779872008275 25:-0.4136137165620728 26:-0.3944469558048117 27:-0.5121231721694194 28:0.16485171439475454 29:-0.2635323836981907 30:-0.09998535212710875 31:-0.5061772792337726 32:-0.47602810446596416 33:-0.525711286319412 34:-0.5058624966665913 35:-0.5058974725073894 36:-0.5979538854875193 37:-0.6402396770122067 38:-0.6397268221994585 
0.0 0.0 0.0 0.0 2.3625352173513723 1:0.7160522615859177 2:0.27410801083662556 3:-0.28787951997525174 4:3.768683993079501 5:-0.27703665480972983 6:1.3767075362378203 7:-0.25586148548780246 8:0.49028621462962363 9:0.47838075132046914 10:-0.021361939956263804 11:-0.2665112934541016 12:2.7672296835233636 13:0.5844454510067187 14:-0.2339396270993022 15:1.6988828457317064 16:-0.25507076063878 17:-0.7609989598390118 18:0.7160548424384231 19:-0.6385941922631371 20:0.43900565473115755 21:-0.7445839541463041 22:-0.6041214321569733 23:-0.6895766093714958 24:-0.4728268009634441 25:-0.7595656293491989 26:-0.7402981515385108 27:-0.6027425217527269 28:0.47837913694971096 29:-0.7436522579272186 30:0.15901230697158167 31:-0.6718371133601079 32:-0.5781084737201062 33:-0.7615408253336602 34:-0.6943096261644502 35:-0.761168146846026 36:-0.6681848641812927 37:-0.7523356666890955 38:-0.7051221820186311 
0.0 0.0 0.0 0.0 6.0 1:0.4915359714448941 2:0.23542926949234594 3:-0.3664248905472529 4:4.493061287345777 5:-0.34566718763035437 6:1.4546652751280986 7:-0.3199926786999431 8:0.055402509260599905 9:0.21214198963863629 10:-0.0814480273648288 11:-0.39614922868441127 12:2.1369673325671856 13:0.9632342151249094 14:-0.3158597809364496 15:1.5403000321095537 16:-0.34511110227822056 17:-0.6927744267352839 18:0.49153680012565426 19:-0.40881779861361417 20:0.31078000081804025 21:-0.4651900894377032 22:-0.43562717848599397 23:-0.5772588043664093 24:-0.31880236442026433 25:-0.708977718361239 26:-0.5417382534430603 27:-0.6371606213921842 28:0.21214100792624513 29:-0.607722870944081 30:0.06661689038368689 31:-0.6046689546560974 32:-0.4445386063427327 33:-0.6646458679840358 34:-0.6961112185905544 35:-0.6964867001013719 36:-0.6702780906463004 37:-0.6726811723155333 38:-0.6496789483877138 
0.0 0.0 0.0 6.0 0.0 1:0.5405458415028997 2:0.780237226012667 3:-0.42881071295354656 4:5.2754218100983294 5:-0.39427139370140263 6:0.19262569929318518 7:0.04631460271675729 8:-0.1880970443791325 9:-0.04628470687894808 10:-0.19899630486852368 11:-0.45318348234823047 12:1.4566217486098998 13:1.0935255415381513 14:-0.4176541761205465 15:-0.22255278518869417 16:-0.4146216274903355 17:-0.6653948081819795 18:0.540547592770941 19:-0.033663909843069884 20:0.3459346603055286 21:0.30993612863944 22:-0.12253705461703177 23:0.19093521431168797 24:-0.42896818442071166 25:-0.3191226386603708 26:-0.4395204545839752 27:-0.5606544754026911 28:-0.04628321682722305 29:-0.4491477493662014 30:-0.2547707800081966 31:-0.3368670643374151 32:-0.643675735112947 33:-0.5294507140791228 34:-0.6278001372465701 35:-0.6141709081627127 36:-0.6457333334095404 37:-0.641165087650131 38:-0.6492475799602385 
0.0 0.0 0.0 6.0 0.0 1:0.6953274772209358 2:1.1492438759368664 3:-0.4318508425217208 4:4.938113710513677 5:0.0045107442125735505 6:-0.280302304049021 7:-0.130239069587036 8:-0.39771598467734964 9:-0.060707621569534215 10:-0.11816360183731028 11:-0.43087789568327756 12:1.9517332044631732 13:-0.23331615235204747 14:-0.21038576868851663 15:-0.21101647823806804 16:-0.39771598467734964 17:-0.6122497745588362 18:0.695331142762535 19:-0.5970359777597155 20:1.2017253383855004 21:-0.6171295063169546 22:0.6688740718132729 23:-0.5690257409546595 24:0.21749744841925012 25:-0.6132776549945864 26:-0.2468725167626694 27:-0.5825870976841037 28:-0.060705619670510275 29:-0.4922549715111444 30:-0.1141877765105823 31:-0.48760434917722506 32:-0.3564994004813168 33:-0.5080173861390845 34:-0.46532751318841314 35:-0.5315190043456082 36:-0.569593755896207 37:-0.5757886688524582 38:-0.6203885950424785 
0.0 0.0 6.0 6.0 1.491488165360586 1:0.4211299307358907 2:0.884731661978467 3:-0.4933869282787617 4:5.051020137935092 5:-0.20193938295289365 6:-0.2156305224266889 7:-0.4341402718584445 8:-0.5230301748834211 9:0.07982036339415313 10:-0.05445200967784756 11:-0.4851414158241721 12:1.9458184082647239 13:-0.2687711921622615 14:-0.3776641689939875 15:1.1808370612073984 16:-0.309770715825304 17:-0.6815425995070676 18:0.4211316510424215 19:-0.1473914093741361 20:0.6789179079897147 21:0.17910882244384102 22:-0.05505006360197148 23:0.14598251980348012 24:-0.5534018761776145 25:-0.14941737423518817 26:-0.6604225813816129 27:-0.45139276826148195 28:0.07981877263069945 29:-0.47342957903082067 30:-0.05805346765037324 31:-0.4641172493186162 32:-0.4411385426051041 33:-0.6535982786917532 34:-0.36365427248065496 35:-0.6598894327339676 36:-0.5247184789342978 37:-0.6753329718940929 38:-0.6918395086633439 
0.0 0.0 0.0 0.0 6.0 1:0.329426247619704 2:0.3071412329650286 3:-0.40712441625109597 4:4.016615874934005 5:2.6162113121816524 6:-0.3777687371140825 7:1.7368279400119273 8:-0.0033525270459361894 9:0.16872578191370455 10:-0.15101394079437772 11:-0.4084724402720422 12:1.9534127505379115 13:-0.375035391013793 14:0.7504142990861202 15:-0.4008248384168607 16:-0.37322829874920194 17:-0.6951191098866026 18:0.32943163992621144 19:-0.5196528698722322 20:0.3487460903798414 21:-0.4138915164008298 22:-0.18274227632202003 23:-0.4220056661425701 24:-0.4145850334727733 25:-0.47690910100477363 26:-0.5578887777720574 27:-0.5491966971370307 28:0.1687206171211425 29:-0.6743765286228547 30:0.014517096174477913 31:-0.7020709770291367 32:-0.5070539763985898 33:-0.6929165516794809 34:-0.6601131941765475 35:-0.7253731506464425 36:-0.6728045565931158 37:-0.7238011786167036 38:-0.652869131420583 
0.0 0.0 0.0 6.0 0.0 1:0.3532192342899097 2:0.5022561879506355 3:-0.4592247883729267 4:4.964832847996719 5:1.2289426976250348 6:-0.4592247811784531 7:-0.37521104112659176 8:-0.5040105474754523 9:0.1595990137765996 10:-0.030512120808474763 11:-0.45852915478684736 12:1.988896253777839 13:-0.45223832073856884 14:1.245539135912533 15:-0.17363583354931628 16:-0.20963702231366796 17:-0.6746018752812586 18:0.3532235561409862 19:-0.280249871661851 20:0.4145820377918957 21:-0.16012707505052032 22:-0.1769983577113551 23:-0.39606745546769057 24:-0.28462867784863255 25:-0.356878979930528 26:-0.39947114935237366 27:-0.49484817150479177 28:0.1595993699658227 29:-0.32341238978869763 30:0.02858475292350602 31:-0.6884171626439877 32:-0.6505349696247305 33:-0.5006252519360918 34:-0.5048936680509377 35:-0.5472466589835894 36:-0.5408992298472883 37:-0.6353747330788986 38:-0.661775800037965 
0.0 0.36388536375440367 0.0 0.0 6.0 1:0.37214909055138234 2:0.09426393241921205 3:-0.3011588508402473 4:3.411698971651985 5:3.4116991496887605 6:-0.29012414458065966 7:1.647056970108729 8:-0.30033455433061457 9:0.23784171320368824 10:-0.14064529574570894 11:-0.36021564664953915 12:1.7573175717634075 13:-0.3087217321333961 14:1.1973476318880973 15:-0.2918914485715436 16:-0.30033455433061457 17:-0.6790485994914577 18:0.37214434066846563 19:-0.5696724293483275 20:0.210406653878733 21:-0.6071816181448758 22:-0.4735185278576512 23:-0.6231733157444904 24:-0.47316202504492083 25:-0.5526366877971457 26:-0.5007145995716454 27:-0.5953660963515299 28:0.23784463821565138 29:-0.6185133146923735 30:-0.014979517226663429 31:-0.6563026128417812 32:-0.6068505798187691 33:-0.6366440291683696 34:-0.5425272866075804 35:-0.6678634897688911 36:-0.5822773502270047 37:-0.6491980210737995 38:-0.606714336078502 
0.0 0.0 0.0 6.0 0.0 1:0.14898256585762715 2:0.3665337134132744 3:-0.5110770917362959 4:3.2828306963025318 5:1.1287539399603788 6:-0.48317796952511266 7:3.28283051511467 8:-0.48772555747606605 9:-0.10972837667454641 10:-0.08780823846420903 11:-0.5093197026649824 12:2.885553371464371 13:-0.4920569007863419 14:0.6687094095602205 15:-0.5009572276230455 16:-0.3850487293363226 17:-0.6690207324366271 18:0.14897987112024175 19:-0.27278445236903065 20:0.3596149667471667 21:-0.3478412137391831 22:-0.02682211056027527 23:-0.4454740426965616 24:-0.2899058134613329 25:-0.5135102759426591 26:-0.5248047270380308 27:-0.5727291365722562 28:-0.10972723198135942 29:-0.5659011275009632 30:-0.12663682211562335 31:-0.5133177568898971 32:-0.40572527560296345 33:-0.5166675884079562 34:-0.45647329791103164 35:-0.5794929726259618 36:-0.4965172608855316 37:-0.6268269903983835 38:-0.6457104261179244 
0.0 0.0 0.5193169874877219 6.0 6.0 1:0.35120255684956114 2:0.6096429443615508 3:-0.47219668582985136 4:3.2154816819934164 5:2.8861244377837196 6:-0.4574518189836194 7:3.130915298406314 8:-0.4492866672869208 9:-0.21605280903248653 10:-0.2752010650882865 11:-0.47368087534502995 12:0.9597603989698386 13:-0.46090736752853295 14:0.7660268469490796 15:-0.469983584238117 16:-0.4492866672869208 17:-0.639831724292529 18:0.3512011685553656 19:-0.5568569710252076 20:0.7024659021324862 21:-0.5302034674547682 22:0.25367190411063445 23:-0.5852881921750921 24:-0.07304806674890563 25:-0.5876543955739398 26:-0.3848719903048193 27:-0.6160365762388741 28:-0.21605012086371952 29:-0.5606698687300864 30:-0.24505756771176904 31:-0.5998777364477798 32:-0.40667048586518784 33:-0.6269848645040086 34:-0.4838602091768192 35:-0.6311778259672516 36:-0.535058475464839 37:-0.6246799617113487 38:-0.5985670992352518 
3.9705927907741105 0.29125015694892376 6.0 6.0 0.5553254545126619 1:0.3683967983156818 2:0.61482707967087 3:-0.5135481565371836 4:3.7380665428040265 5:3.731556584032982 6:-0.5064523219649845 7:-0.045691493979327674 8:-0.36684671108338623 9:-0.07331038252201799 10:-0.16350086238797096 11:-0.5132817615170601 12:1.284160099501471 13:-0.5060172154370355 14:1.231085266006392 15:-0.4634443600080846 16:-0.5392033033014979 17:-0.6974168773015564 18:0.3683977852203751 19:-0.22076013612918513 20:0.45471971182294607 21:0.08342052303707902 22:-0.19446139276657165 23:-0.08287486235469577 24:-0.4761782427470751 25:-0.15958790894110697 26:-0.5683172043370073 27:-0.4425399811658403 28:-0.07330907148659062 29:-0.3156998923426616 30:-0.1944326666678685 31:-0.5785867846233365 32:-0.5881094863433871 33:-0.5911113636578527 34:-0.46875254623234475 35:-0.63714493682944 36:-0.5309301868750286 37:-0.6900009584429941 38:-0.673119322428727 
0.0 0.0 4.32312105334338 1.6168280324389253 0.0 1:0.3332854556031296 2:0.47230610406098555 3:-0.4486490715903716 4:5.14590450048182 5:0.22497606809531198 6:-0.39924330935456026 7:1.3520492071694084 8:-0.25782121680405884 9:0.1928313708825412 10:-0.017459116164765573 11:-0.4174400724345891 12:1.968422992303966 13:-0.4011647468446822 14:0.07226326083393941 15:-0.41156044134845543 16:-0.4071355709480601 17:-0.6389742869426145 18:0.33328631481064025 19:-0.18706487723407014 20:0.4002631347913588 21:-0.34671925040254353 22:-0.2302167255816866 23:-0.3105291838168913 24:-0.3230529252707193 25:-0.2383730221768027 26:-0.388228640854576 27:-0.3767314355854879 28:0.1928281682968049 29:-0.43725974189661226 30:0.09543788080638016 31:-0.6930912234280905 32:-0.5435342334586052 33:-0.4934019390547568 34:-0.5320743567780531 35:-0.5133727339215169 36:-0.5328769214315772 37:-0.6046224685977698 38:-0.6332569462143612 
0.0 0.0 0.0 6.0 0.0 1:0.5258760301538854 2:0.631330475859401 3:-0.4752216242346085 4:4.898708059586348 5:0.43185131124304565 6:-0.25231193402938656 7:0.9392497555428105 8:-0.3143901878394379 9:0.026262311389906954 10:-0.13953948725784113 11:-0.47205980067961617 12:2.492543086487245 13:-0.2539958239955309 14:-0.07458243727900779 15:-0.3735475162087542 16:-0.45509916541761397 17:-0.6690932165673169 18:0.5258798547019364 19:-0.03791463552051915 20:0.510111654902082 21:-0.18674955655383493 22:-0.14223275377253952 23:-0.10337948733876559 24:-0.16935440920073297 25:-0.4605692269209655 26:-0.4821504663570183 27:-0.5919034688679956 28:0.026266246877326427 29:-0.5861519894094877 30:-0.09481382832869421 31:-0.46955701286377155 32:-0.49382931149600695 33:-0.5583443777156006 34:-0.5772873238220625 35:-0.6197814350506717 36:-0.6069593294688604 37:-0.6759243171043641 38:-0.6713346634429884 
3.5383416640170657 0.0 0.0 0.0 0.0 1:0.5322680979500269 2:0.16527291425890164 3:-0.3757814034941281 4:3.60437095730079 5:1.7319151574358318 6:-0.035467086072070164 7:-0.160437119298492 8:0.08049702112529954 9:0.5394371180984393 10:0.06062442510868708 11:-0.3739382780176173 12:3.547476132942922 13:-0.18359919119718518 14:0.342917304697588 15:0.3117762390209814 16:0.35584484754478707 17:-0.7688075736667037 18:0.5322739673230736 19:-0.5760698709719685 20:0.16320462448605305 21:-0.3064010934723828 22:-0.7233121211497894 23:-0.6670723276036091 24:-0.8382010017233206 25:-0.4260053055733477 26:-0.8309387028015066 27:-0.6151004253669307 28:0.5394330108099802 29:-0.6094557949253313 30:-0.008887767026126635 31:-0.4807306860742209 32:-0.6927140939389238 33:-0.467479571927783 34:-0.6513430830193959 35:-0.5936232949062108 36:-0.7527399200983721 37:-0.6173376264565892 38:-0.7518684793213396 
0.0 0.0 0.0 0.0 6.0 1:0.7034659869284674 2:0.2722342516350509 3:-0.31187648823124225 4:3.6238303005673673 5:-0.12138898495471975 6:2.0137163716842545 7:-0.30546007838031436 8:0.392202955510144 9:0.4050686822750758 10:-0.018666782992154893 11:-0.3334541481436056 12:2.77503302623802 13:0.348363961280469 14:-0.2871450472129502 15:1.5804048840957459 16:-0.2925799419936875 17:-0.763863400783021 18:0.7034710215705106 19:-0.6102507281457148 20:0.39730458809654756 21:-0.7202611006297054 22:-0.725910559534112 23:-0.750220352395498 24:-0.6087442057712065 25:-0.5406767857593255 26:-0.7887051512352133 27:-0.43929467778388337 28:0.40507687398321596 29:-0.6953007640156907 30:0.13017077978030292 31:-0.5852903915317003 32:-0.47812186807235063 33:-0.7581638340065424 34:-0.7488850257453655 35:-0.6941366330899343 36:-0.7189942522693233 37:-0.741831761901076 38:-0.7111207190668398 
0.0 0.0 0.0 0.0 0.818992791734743 1:0.5778982813691603 2:0.28347961967342294 3:-0.33156299327347216 4:4.528727409864557 5:-0.2882589720157068 6:1.9566814957933212 7:-0.28425976748566834 8:-0.05304343643071083 9:0.27494540960913805 10:-0.08169695604076897 11:-0.3300771492361746 12:1.902974333731734 13:1.2899504969858115 14:-0.2927452464622931 15:0.4309503335213787 16:-0.27739214050013333 17:-0.6629665605087547 18:0.5778952283825269 19:-0.5926301133056806 20:0.43174606947530253 21:-0.6763963106876013 22:-0.4149739832707067 23:-0.5777670116610815 24:-0.2888619679956826 25:-0.637247461827487 26:-0.45398261419077757 27:-0.7028133705917757 28:0.27494034712478044 29:-0.6960268222936757 30:0.07233944555608758 31:-0.6468103253384462 32:-0.4666863595587086 33:-0.6761439183955232 34:-0.6039316792731778 35:-0.7020561937155415 36:-0.563436738188647 37:-0.6843326460940571 38:-0.6164277327449724 
2.2808439285610116 0.0 1.1294783372379213 0.6166007845486237 0.0 1:-0.026263273059780046 2:-0.022503067090680565 3:-0.3691813745913997 4:2.880943715986126 5:-0.2468334008896918 6:-0.3519965995354511 7:-0.14686986404165173 8:-0.27048272588035455 9:0.055784915665119 10:0.26196767811423427 11:-0.3739264171164596 12:4.702395375663721 13:-0.36654902293062325 14:1.8999828256685087 15:-0.32547752861027973 16:-0.3404543389513943 17:-0.5582207751414325 18:-0.02626430335915804 19:-0.18901827536239652 20:-0.2815032549390434 21:-0.32387106665355786 22:-0.5189694167988844 23:-0.37650721258624753 24:-0.3690727286974496 25:-0.4329743043345767 26:-0.4499424205043038 27:-0.5348704658692783 28:0.05578615941826996 29:0.10463509179348966 30:-0.11726238615804528 31:-0.26369547941246374 32:-0.22998665481549027 33:-0.2214676109240912 34:-0.2854391581742893 35:-0.3978485545729146 36:-0.47549955217850104 37:-0.5079663806434636 38:-0.5605781484861153 
0.0 0.0 5.19055236582736 6.0 0.0 1:-0.011962703001201594 2:0.07673899784095832 3:-0.4204974854907093 4:3.854883428753708 5:-0.3861111238930774 6:0.20522309984220619 7:-0.41178280859439303 8:-0.38492694546208145 9:0.11516092443211993 10:0.19015889806753933 11:-0.39727189007568703 12:4.28734077454885 13:0.19465396640018665 14:-0.34895379833633233 15:0.6959186841256997 16:-0.14254922099204478 17:-0.5697182755920785 18:-0.011960647629922824 19:-0.5443357451244688 20:0.027918062349287905 21:-0.4595641359910734 22:-0.216353238093171 23:-0.4660628887284263 24:-0.38735072270678184 25:-0.5030406403178863 26:-0.46686576494073323 27:-0.4570797643152555 28:0.11515889455072174 29:-0.2705852539433417 30:0.07362141201966914 31:-0.3370421962714698 32:-0.3136224486445525 33:-0.2872335738928773 34:-0.3568868724624541 35:-0.2768416289562245 36:-0.4181175451066971 37:-0.414497027847426 38:-0.5755627965205822 
0.0 0.0 0.0 6.0 0.0 1:-0.021361570346695283 2:0.19360111413503003 3:-0.586025852756341 4:3.301039852467739 5:-0.46918078855851825 6:3.017639887302506 7:-0.4565590147547287 8:-0.35523369835368057 9:-0.1453344915777927 10:-0.010329547877898386 11:-0.49247948161121224 12:3.4785055639377758 13:1.0272045237101288 14:-0.46218516913071644 15:-0.04317049186582914 16:-0.2521014109906482 17:-0.6365987523298979 18:-0.021362255319743773 19:-0.2066974214790731 20:0.002944735658131023 21:-0.41604307329010853 22:-0.18345398221462972 23:-0.34449504893200483 24:-0.21454836685458406 25:-0.42250173278621844 26:-0.4087077893514129 27:-0.5525257640791617 28:-0.14533371049806895 29:-0.3780517169327515 30:-0.19829214005898604 31:-0.3034870731692791 32:-0.36552114401814306 33:-0.4124463347683228 34:-0.39390830611481775 35:-0.49590613831685676 36:-0.4975175803069042 37:-0.5082175551208188 38:-0.6213582734454608 
0.0 0.0 6.0 6.0 0.0 1:0.3565308173459183 2:0.677598429440725 3:-0.46471101548834737 4:4.413789202549505 5:-0.2817103734992411 6:-0.17906181800302062 7:-0.4434738041597355 8:-0.43855798504685645 9:-0.04968129392509379 10:0.16651952929661432 11:-0.4598792152344558 12:3.583594575926153 13:-0.3599286852216691 14:-0.4513988126172792 15:-0.03438797704434965 16:-0.43855798504685645 17:-0.6014125626189025 18:0.35653029546269427 19:-0.4168915035277426 20:0.6440231629265717 21:-0.27223667149021763 22:0.17735632781289024 23:-0.3496632750236095 24:-0.11826147022065484 25:-0.45315989684371555 26:-0.3628063464189323 27:-0.582172717909212 28:-0.049682463566951024 29:-0.4569285678810178 30:0.061594640394682265 31:-0.418579976214706 32:-0.12055779307492502 33:-0.41383874490971284 34:-0.2924713281707866 35:-0.43193917211396005 36:-0.4318986487694729 37:-0.4623722038237877 38:-0.6013146732905433 
0.0 0.0 6.0 6.0 0.615169057768637 1:-0.10287260289022988 2:0.2631443717765449 3:-0.49982092600440614 4:4.1227410686402095 5:-0.479804620325163 6:1.4675791411318937 7:-0.49209584562778247 8:-0.5230281820092523 9:-0.05198184706885135 10:0.19418560080497402 11:-0.4949205666572384 12:3.328820569202504 13:0.02712791797744017 14:-0.4823855364188167 15:1.5814635685387637 16:-0.4752139298216372 17:-0.6318674259096475 18:-0.10287239447363161 19:-0.05896695740235403 20:-0.0029286538384691186 21:-0.2061989934510678 22:-0.21974238038320978 23:-0.36764381596255014 24:-0.4295632725455117 25:-0.522322921789485 26:-0.6209995847416756 27:-0.5654633308257606 28:-0.05198009980143871 29:-0.5068908718959322 30:0.04798157117829405 31:-0.32161064466892375 32:-0.2009274721473833 33:-0.27733464714319217 34:-0.4228334165501049 35:-0.322949443730177 36:-0.5577174219713671 37:-0.4033969230358393 38:-0.6367090801595241 
5.834087921392081 0.0 6.0 6.0 0.0 1:0.03212652999186742 2:0.3756073733258892 3:-0.5430589161405546 4:3.6724136244347525 5:-0.49526063117075975 6:2.4757511264225616 7:-0.0658722681017711 8:-0.4255462399570834 9:-0.09118866998735214 10:-0.005154842764861348 11:-0.5007584378037976 12:3.3810929259504956 13:1.1788395796492857 14:-0.5004629582228625 15:-0.4182879068369451 16:-0.4255462399570834 17:-0.6584480538738013 18:0.032124901034444465 19:0.026219552959436482 20:0.08892555148051388 21:-0.22353801257859582 22:-0.08316935517490885 23:-0.2639156634120022 24:-0.3055596981441122 25:-0.46998964962317 26:-0.5870835040043655 27:-0.6233687352914343 28:-0.09118756480722776 29:-0.3708384555330823 30:-0.22665731607645556 31:-0.23398901233210878 32:-0.47020293533242546 33:-0.3889144193924745 34:-0.5518380405499164 35:-0.446674855530193 36:-0.5305894517653507 37:-0.6137308873044576 38:-0.6522684435800985 
0.0 0.0 0.0 6.0 0.0 1:0.47370470379820817 2:0.7758416808893395 3:-0.44124960949602926 4:5.3619704775298995 5:0.2306506992297613 6:-0.32871569086770414 7:0.34758562815095756 8:-0.16533673856880088 9:-0.0016427223036412754 10:-0.2035962002850355 11:-0.41662912868549784 12:1.6438805775090384 13:-0.30239340570474055 14:0.146863140182671 15:-0.3306095763374567 16:-0.31269841932800707 17:-0.6118182717025015 18:0.4737064001485441 19:0.026086084737408 20:0.41001852374542475 21:0.15034882203760852 22:0.00843952346649296 23:0.011884102754239359 24:-0.12856999921937898 25:-0.2494986784924025 26:-0.6252893846384732 27:-0.5264649574793305 28:-0.0016455415604652037 29:-0.5478692416096053 30:-0.1435640502366282 31:-0.6439306372545127 32:-0.5309594887424863 33:-0.6306865061962791 34:-0.485166846446563 35:-0.6402465952355325 36:-0.5060737849042755 37:-0.6547985612105043 38:-0.6315263276737462 
0.0 0.0 6.0 6.0 0.0 1:0.2362713923276954 2:0.46720600146583974 3:-0.494388735410957 4:3.952537484997278 5:0.6215424503253438 6:-0.24923089553964492 7:0.6116192635983324 8:-0.23833470881129368 9:-0.08150374140367707 10:0.130544386964493 11:-0.5132355386585533 12:4.045704469918697 13:-0.45027725659886614 14:-0.3710105689517413 15:-0.49232187297283947 16:-0.41545882838044074 17:-0.6541656846814449 18:0.23626936957423575 19:-0.1385843088072691 20:0.36487624072473385 21:-0.1739353310046113 22:-0.07415541031399174 23:-0.299117802510106 24:-0.27975223210387923 25:-0.5124047631579538 26:-0.48683984856680695 27:-0.6309450801796056 28:-0.0815060612761114 29:-0.44946665933771696 30:-0.06033972898759837 31:-0.4000490299779249 32:-0.2966233044928405 33:-0.4281527236162296 34:-0.41827805395024964 35:-0.41906035214501336 36:-0.46245576143945444 37:-0.4365956399823589 38:-0.6583811366374732 
2.053996894383959 0.0 6.0 6.0 4.895846458389041 1:0.3051118143092133 2:0.5975790029147178 3:-0.5363857623986054 4:3.2395518975500632 5:0.42469177624480614 6:-0.5174399703553133 7:3.0334900164256204 8:-0.5151609578737342 9:-0.2815892541150188 10:-0.01588065578719685 11:-0.5526597967220261 12:3.293414951734235 13:-0.5302267858426009 14:0.44356582260706107 15:-0.5409072292249048 16:-0.5650889880823879 17:-0.6862883274324191 18:0.305112891428014 19:-0.38529815130102574 20:0.5859767843630196 21:-0.05423786499499508 22:-0.005907531753018273 23:-0.10904636015654469 24:-0.44809513129596007 25:-0.3328986835970438 26:-0.6815461185440727 27:-0.6165398232124055 28:-0.28159139155387597 29:-0.3612702867631112 30:-0.2521400947345463 31:-0.41123576299442144 32:-0.3458674894437415 33:-0.4766789285904142 34:-0.43838412942037686 35:-0.5354941481762083 36:-0.5101556728453166 37:-0.5676353176230292 38:-0.6728443427424357 
0.9807217298621996 0.0 6.0 6.0 6.0 1:0.2829799997506117 2:0.5075388894676842 3:-0.5559123055650587 4:3.088548501716798 5:2.9255859350982925 6:-0.5446734487265559 7:1.127845382721722 8:-0.4379589021585026 9:-0.3035613621059352 10:-0.1394277135480218 11:-0.5770125364958129 12:2.9870700935480796 13:-0.5618687547484934 14:1.4851832517120902 15:-0.5560646371610977 16:-0.5841936436688767 17:-0.7120173773918717 18:0.2829783734876421 19:-0.3420776566415339 20:0.43935205707606884 21:-0.11251348492716479 22:-0.05955213604349097 23:-0.15966200283580126 24:-0.43663060325645 25:-0.2824382545622196 26:-0.65190032898818 27:-0.6407621161764732 28:-0.30356308159623907 29:-0.40771268312277353 30:-0.2892503562709113 31:-0.483011388772157 32:-0.3977199757862313 33:-0.5605279880011146 34:-0.48171964855548205 35:-0.6254440270032614 36:-0.5543861288576788 37:-0.6744935965515328 38:-0.6910263450600663 
0.0 0.6060677606129612 0.0 0.0 0.0 1:0.47145547573474583 2:0.07321476294918346 3:-0.3667198714939688 4:3.320902085981158 5:1.4092697372041039 6:-0.33300838434739854 7:2.9930536789010884 8:0.28628824616810705 9:0.354940628629876 10:-0.09577199040673882 11:-0.34411624348793257 12:2.121295247657765 13:-0.2857587274943538 14:1.4257611631821485 15:-0.3407447289347083 16:0.28628824616810705 17:-0.7960853019580619 18:0.4714541197731715 19:-0.786921202069592 20:0.1536972777139329 21:-0.6285615614000772 22:-0.5874307961332836 23:-0.6984962511383452 24:-0.49067438747856745 25:-0.6269819913484157 26:-0.46685694885645584 27:-0.6969166810866838 28:0.3549375994917879 29:-0.6368001032381548 30:-0.0362227920270146 31:-0.6910939522687942 32:-0.6895763261407274 33:-0.7796427910472302 34:-0.6051777302431275 35:-0.6774972610397865 36:-0.7278576709221708 37:-0.6239467390922818 38:-0.7096978359013026 
0.0 0.0 0.0 6.0 0.0 1:0.1585379851529976 2:0.29091952777633656 3:-0.40786630512292105 4:4.416353951496284 5:0.8454280522500615 6:-0.3788592499495784 7:3.19645524414283 8:-0.11356743625947857 9:-0.13487727087394397 10:-0.2806664186769865 11:-0.40210643815623404 12:1.050086479902742 13:-0.3728388097633727 14:1.0500865392000172 15:-0.3870587251631384 16:-0.24603982916549894 17:-0.6227761061208662 18:0.1585391382940438 19:-0.37612771899921094 20:0.2337751779401068 21:-0.2766906290741294 22:-0.13254410654326593 23:-0.24396994802634236 24:-0.3482919574398334 25:-0.34446681709467203 26:-0.47024935415893837 27:-0.4630461677946735 28:-0.13487893246823457 29:-0.5609267071031093 30:-0.26339371263618755 31:-0.5028210037647061 32:-0.47531642318759365 33:-0.5566875905301166 34:-0.5593867155355768 35:-0.6137335147252716 36:-0.5625660529653214 37:-0.5860633436570266 38:-0.582364811199181 
0.0 0.0 0.0 6.0 0.0 1:0.143158722070815 2:0.29617926562967173 3:-0.42282324673224364 4:4.374942740556574 5:3.280474159556693 6:-0.39769755297064363 7:0.46906341146441755 8:-0.12780138482806117 9:-0.054946720215029124 10:-0.21354651243025358 11:-0.41674635467762067 12:1.1863475889853639 13:-0.40196796680732444 14:1.0825796012444349 15:-0.35890865825860957 16:-0.2605547346166114 17:-0.6364441907951336 18:0.14315649917473175 19:-0.3940216336602751 20:0.23149555637465008 21:-0.31516614388587627 22:-0.12038379140862586 23:-0.2788581027187078 24:-0.38411491493230454 25:-0.3304991557864538 26:-0.5002906901660096 27:-0.4359385038560098 28:-0.054944687047232495 29:-0.4933211393021107 30:-0.20725426467650848 31:-0.45873889168219334 32:-0.4988801858245063 33:-0.6015483077172262 34:-0.5913097056147844 35:-0.5182123923874639 36:-0.6095466970419864 37:-0.5225102820868682 38:-0.600420732930684 
0.0 0.0 6.0 6.0 0.0 1:0.048518766951213016 2:0.3079139279584348 3:-0.5477272712083223 4:3.247627496839129 5:0.6694875957237777 6:-0.5221775937091244 7:3.1375189972942725 8:-0.517643888033696 9:-0.07738082541910735 10:0.2096326732061129 11:-0.5437612489265168 12:3.24117237767712 13:-0.49814781839138483 14:0.6220477884032699 15:-0.5252102370187972 16:-0.416334672001345 17:-0.6940385016895813 18:0.048516333937095785 19:-0.3501037720201955 20:0.2683256735972874 21:-0.3890698292366385 22:-0.030435204482115834 23:-0.45478151948562223 24:-0.3025644223970148 25:-0.5242543143798069 26:-0.5481252984074296 27:-0.6139003069164335 28:-0.07737936246110641 29:-0.5233425314355157 30:0.025943374239887497 31:-0.48489568395123844 32:-0.1682284019381173 33:-0.5346131817191148 34:-0.2527836063691183 35:-0.6111016398235398 36:-0.33333709676684137 37:-0.610848366783459 38:-0.674518410856411 
0.0 0.0 2.5061217453802245 6.0 0.0 1:0.11090384867218167 2:0.4254466135524228 3:-0.5446551519413403 4:2.6406089374637345 5:2.633429863169182 6:-0.5307149403567553 7:2.618256791185046 8:-0.5210601250311331 9:-0.27584948481242894 10:-0.11021937677367992 11:-0.5499450670692214 12:2.900556093695636 13:-0.5275665473231637 14:1.2502952980437305 15:-0.5278441254182437 16:-0.5210601250311331 17:-0.6833063166904512 18:0.1109047447965908 19:-0.6011223919350127 20:0.43979529931704936 21:-0.48652664386186034 22:0.12483826313110631 23:-0.46271791350385344 24:-0.1854652484848629 25:-0.5130192674602244 26:-0.4564085999589816 27:-0.6068581315212598 28:-0.2758518466439874 29:-0.4670251292686201 30:-0.2266976406048658 31:-0.5038529062723918 32:-0.3153310504376279 33:-0.5584614759935295 34:-0.4135312410142437 35:-0.6071070409750027 36:-0.49927513675355684 37:-0.6296062911633192 38:-0.6539565367259313 
0.0 0.0 0.0 6.0 6.0 1:0.19594029497233206 2:0.47224590403329025 3:-0.5076805742708246 4:3.0304974374585356 5:2.873725042811453 6:-0.49650331499540606 7:2.863446550847801 8:-0.3938713076076359 9:-0.23535298870184235 10:-0.1774588522865384 11:-0.52298611166085 12:1.5766396576506216 13:-0.4922692751068637 14:1.481212489544019 15:-0.4939723254865741 16:-0.4864130371487685 17:-0.6674966475188977 18:0.19593762176467658 19:-0.5814071225227412 20:0.47820724843942003 21:-0.5335283452013977 22:0.1459940071029466 23:-0.6244621621917531 24:-0.04935001624219173 25:-0.6075038902533406 26:-0.32926561267173265 27:-0.6195921536746509 28:-0.23535310876177196 29:-0.6306046194900459 30:-0.19785635672332433 31:-0.6252834700414307 32:-0.3029721937658584 33:-0.638829265703014 34:-0.4205348934316747 35:-0.6496566480593264 36:-0.5182589598271108 37:-0.6497723252212528 38:-0.6256106760582785 
0.0 0.0 0.0 1.5947945446568284 0.0 1:0.15867352701001308 2:0.37200151425493017 3:-0.4668868054821804 4:3.7702218415314785 5:3.662659196092311 6:-0.4210003612441675 7:0.6247865452740956 8:-0.10398160813641416 9:-0.13438005223508115 10:-0.19024847580374832 11:-0.4951140664770383 12:2.145671236079562 13:-0.4541158654961742 14:0.04573706734323652 15:-0.42156571614165944 16:-0.21788641685819093 17:-0.6412625990702348 18:0.15867576172545803 19:-0.1725523029869238 20:0.23494215021523254 21:-0.2995419266106147 22:-0.1453148156013289 23:-0.2738991065471246 24:-0.26295000680874386 25:-0.27465372590490644 26:-0.4630522795307252 27:-0.46795018630576163 28:-0.1343799539640384 29:-0.47393018876365495 30:-0.2020821246480444 31:-0.503687820042219 32:-0.4626393745991087 33:-0.5727995627341571 34:-0.6064157194081714 35:-0.532078593616122 36:-0.6114417690930198 37:-0.54670112343578 38:-0.6208562919809789 
2.51923431438768 0.0 6.0 6.0 6.0 1:0.02108940204293965 2:0.24322808198409304 3:-0.5188381891457636 4:3.0393610201077834 5:0.7555273557510784 6:-0.5029207659322118 7:3.0393608386889563 8:-0.5003090736474067 9:-0.23366290472902196 10:-0.10195224616872794 11:-0.5237824434434041 12:2.54720242127763 13:-0.47229016737288226 14:2.5472024615524576 15:-0.5160344244123117 16:-0.45271178066159395 17:-0.6806213086262233 18:0.021089522704055924 19:-0.3378952106565671 20:0.17112213985696106 21:-0.2239829892182707 22:-0.1803362715502804 23:-0.2712590004764292 24:-0.4563410742517622 25:-0.424355693365296 26:-0.562411641670646 27:-0.5820693236737866 28:-0.23366308867926042 29:-0.38302934373036407 30:-0.2409038268747272 31:-0.40736345976936084 32:-0.3762705281263787 33:-0.4255337263666949 34:-0.4949424788632563 35:-0.5014157107093268 36:-0.5668976865345587 37:-0.5687658802842519 38:-0.6446230050251952 
0.0 0.0 1.759323970270313 6.0 0.0 1:0.25604827262715374 2:0.5995133879891608 3:-0.4962771516799646 4:3.2601302727507475 5:3.260130401286309 6:-0.4962771572572985 7:-0.14973997761458652 8:-0.47732766321268977 9:-0.19359911433302862 10:0.023855988444335927 11:-0.5192663399677228 12:3.2223748126907186 13:-0.49413148107688976 14:0.017076720654006592 15:-0.499390139887259 16:-0.528363265947141 17:-0.6506397928633149 18:0.2560475686310329 19:-0.49374836839249947 20:0.6015649785936097 21:-0.2463660430379307 22:0.16744338283368365 23:-0.19517733349527608 24:-0.25971185315298967 25:-0.3064732241584306 26:-0.5513420460783277 27:-0.49415665321437513 28:-0.1936016092608499 29:-0.5520693034172937 30:-0.13628224793971924 31:-0.5088804246032642 32:-0.2603880748892211 33:-0.47061648145310947 34:-0.39734211482712106 35:-0.45951623785836626 36:-0.5191130629515217 37:-0.48162741274306736 38:-0.6327612111875016 
0.2151547822493604 0.0 6.0 6.0 6.0 1:0.4464505204038837 2:0.8575895844543728 3:-0.4972134169052939 4:4.1014413282366675 5:0.1522512638585718 6:-0.4699846717191698 7:-0.43733658105258943 8:-0.46341193191287616 9:-0.042922470935241826 10:0.1588119513159776 11:-0.5123585869320529 12:3.734152185409778 13:-0.48998775603401085 14:-0.3734432307930343 15:-0.3211349107603653 16:-0.5223334218322497 17:-0.6414628001485752 18:0.44645371542209095 19:-0.3208366566804719 20:0.8141827340089015 21:0.11659648448095769 22:0.1086862744592818 23:0.07943175471431274 24:-0.4425979155988574 25:-0.24233850173538643 26:-0.6400143675737187 27:-0.5448119702364908 28:-0.04292608428950645 29:-0.5622969223700649 30:0.0501772349693438 31:-0.4387532883816183 32:-0.16890759492336704 33:-0.4009846133432998 34:-0.37243715147736334 35:-0.4241407588816137 36:-0.5367544564900164 37:-0.509429615539907 38:-0.6474053551869917 
0.0 0.0 6.0 6.0 0.0 1:0.2647573206861193 2:0.628758518104925 3:-0.4450547013329351 4:4.3839730917658395 5:-0.39477705393375917 6:-0.2492367167971565 7:-0.4196080286599506 8:-0.09854842816977599 9:0.0041804168779514105 10:0.03379022793413098 11:-0.43735724711956997 12:3.7104234365199495 13:-0.26097342801880097 14:-0.40559252727741174 15:-0.2845544109533618 16:-0.284458345250855 17:-0.5948831648054077 18:0.2647582810393776 19:0.17978970268677938 20:0.4036562278385787 21:-0.08231229541136173 22:0.0010992873856823892 23:-0.10397080075130749 24:-0.2476481816688014 25:-0.36726572081738557 26:-0.5648569776883924 27:-0.594943399269347 28:0.004182293510610253 29:-0.3460874827632327 30:-0.12813908997184778 31:-0.21833638474235123 32:-0.3721303636476738 33:-0.3496972336532237 34:-0.5078600956099516 35:-0.39437758372504295 36:-0.5522925657923294 37:-0.5710694674175184 38:-0.6033371091011897 
0.0 0.0 0.0 6.0 0.0 1:0.4483423685237609 2:0.6778108042217874 3:-0.5252792783980984 4:5.005246637354672 5:-0.44304086770846385 6:0.3970706969451159 7:-0.3131522512170976 8:-0.15223175833030014 9:0.002020461968537985 10:-0.10004383451410848 11:-0.47361109595615936 12:2.3078795641234278 13:0.08365143911159689 14:-0.4314716697597609 15:0.7882236962698547 16:-0.15223175833030014 17:-0.6716096390453311 18:0.44834373645980735 19:-0.1435616159029019 20:0.6564544193161951 21:-0.1676453448678972 22:0.043782530845933344 23:-0.2502752557168546 24:-0.25836375336924927 25:-0.4446718453626092 26:-0.4656837628596164 27:-0.5735243394251388 28:0.002022253640592431 29:-0.6179292827168246 30:-0.04224636665695173 31:-0.5181953802029157 32:-0.42713162011640515 33:-0.48422369006285815 34:-0.6200195686269939 35:-0.5747058053743651 36:-0.6545547271428364 37:-0.6902168224102482 38:-0.6652272747070005 
0.0 0.0 0.0 6.0 0.0 1:0.31435170113125116 2:0.575444144700909 3:-0.5465084321449443 4:4.69430496807731 5:-0.3869481725799322 6:1.717226745320068 7:-0.46104457660241566 8:-0.25923499811112943 9:-0.09107679457270006 10:-0.18087876075454684 11:-0.49923016353264393 12:2.089917697117552 13:1.2536078516170304 14:-0.47405803166516053 15:0.4806037977493355 16:-0.3289445712301721 17:-0.7058711455053316 18:0.3143527969056335 19:0.0055393879882744195 20:0.3769694209598137 21:-0.16768890121254662 22:-0.10216190248064654 23:-0.18938600584584875 24:-0.18342583734417048 25:-0.44173466053678323 26:-0.4767811484223819 27:-0.7135845683077698 28:-0.09107808035471869 29:-0.49300605156583904 30:-0.20320592871669893 31:-0.4110275935778449 32:-0.5049438159624752 33:-0.5781911499173092 34:-0.5757861696447023 35:-0.7276833294710964 36:-0.6662343407666602 37:-0.6787123543549688 38:-0.6838910263857412 
0.0 0.0 4.393931060865563 6.0 6.0 1:0.14514051217116347 2:0.36400374693858706 3:-0.4679590303647324 4:3.815183891557581 5:-0.4225335235776673 6:3.667418050514146 7:-0.44351918278505137 8:-0.3172487538217754 9:-0.13193775572371277 10:-0.20752365939280723 11:-0.5081425582300461 12:1.2862541451858625 13:1.2862542387440965 14:-0.44881641072666306 15:0.8702384643356735 16:-0.3172487538217754 17:-0.6620184379825127 18:0.14514338123587467 19:-0.2957019741578145 20:0.2769856668563203 21:-0.24597751049037217 22:-0.05862884682254906 23:-0.3305252002587405 24:-0.2241233379100096 25:-0.4994010134266188 26:-0.365919298918698 27:-0.6103698562476022 28:-0.13193473850537252 29:-0.5895256889639879 30:-0.18026861517004578 31:-0.5411332612676192 32:-0.40851517447720764 33:-0.5822360855178925 34:-0.47855684614300453 35:-0.6275399462923211 36:-0.5258660797530057 37:-0.6197965723505852 38:-0.6136539844391088 
0.0 0.0 6.0 6.0 0.0 1:-0.01768223042989128 2:0.134267433510285 3:-0.5088364396794882 4:3.377628811703098 5:-0.43577034325352837 6:0.6106016317731982 7:-0.48947657958270424 8:-0.27553473611759066 9:-0.03743541152520318 10:0.2041860042368683 11:-0.5111001811202732 12:3.2855627116826005 13:-0.19638954844688603 14:-0.47386499520110226 15:3.2287697897642373 16:-0.27553473611759066 17:-0.6602384969582975 18:-0.017684520674867418 19:-0.49591490223207524 20:0.021682909725107908 21:-0.5972763549963394 22:-0.23997497521531788 23:-0.5010649365696457 24:-0.2890874580585657 25:-0.4591547573864589 26:-0.38724788697391394 27:-0.49501138743601014 28:-0.03743277264600248 29:-0.28774509321869773 30:0.03348023149087091 31:-0.2687583751471031 32:-0.19704511504800057 33:-0.33836773650679713 34:-0.30328554771101585 35:-0.4684351450774695 36:-0.4192194034003856 37:-0.5642077134603601 38:-0.6474017436946948 
1.270880599956751 0.0 6.0 6.0 6.0 1:-0.0945368073803662 2:0.19631485477656835 3:-0.57817305583649 4:2.573599547432335 5:-0.5625430674266552 6:2.5035200039666172 7:-0.5622409618719554 8:-0.5564474920875073 9:-0.12143018460702146 10:0.14905762320469548 11:-0.6005499945962832 12:2.5121171055287213 13:2.471546080441004 14:-0.564387819387602 15:2.389495550645474 16:-0.5564474920875073 17:-0.7217669987091689 18:-0.09453790759105306 19:-0.38784319053722843 20:0.11430234725533138 21:-0.4714255286195543 22:-0.09614566440857844 23:-0.5756565081818613 24:-0.30029925559080445 25:-0.6781431241382259 26:-0.4775308012403528 27:-0.6855934482142089 28:-0.12142842848024996 29:-0.5431651089675601 30:0.05159983137184673 31:-0.49634050518394884 32:-0.13673889699746763 33:-0.46658124173799126 34:-0.3198655509779419 35:-0.4794432962781932 36:-0.4865678657048738 37:-0.5401492514078885 38:-0.6855734963740625 
0.0 0.0 6.0 6.0 3.6475106354549194 1:-0.012316625929578084 2:0.30389172925055163 3:-0.5177440731759405 4:2.8637212677467176 5:-0.496636841112946 6:2.646464417910737 7:-0.5074163760482762 8:-0.4910434518649009 9:-0.20204544233677507 10:-0.042142698955997863 11:-0.5431617751922273 12:2.8480156543323205 13:2.84801571927949 14:-0.4977443782863099 15:0.5796318591195364 16:-0.4910434518649009 17:-0.6569265901116357 18:-0.012318237935260356 19:-0.4309691687224328 20:0.21626286566271932 21:-0.5040992432086385 22:0.015100026571668227 23:-0.5781114657586102 24:-0.178090399393097 25:-0.6050059548526777 26:-0.3581478460585452 27:-0.5503568823023708 28:-0.20204623274974384 29:-0.5031509340400899 30:-0.12728969777096955 31:-0.49517852091380427 32:-0.2502721647107542 33:-0.5078704261812383 34:-0.37155649662778917 35:-0.5324161960555287 36:-0.47373129611349213 37:-0.5578992482475704 38:-0.6243714233516409 
0.0 0.0 0.0 6.0 0.0 1:0.21011345420162486 2:0.5509210512900108 3:-0.4999992549989868 4:3.871974656975034 5:-0.42502180438021925 6:3.87197451286015 7:-0.3962193248074477 8:-0.3551722521698927 9:-0.1481114458993966 10:-0.22987030761335717 11:-0.4285341369479675 12:1.1247091826000237 13:0.9736882069610497 14:-0.41678266141973963 15:-0.1890943193523865 16:-0.303313125022126 17:-0.6005317000275523 18:0.21011168091344476 19:-0.28867588638466884 20:0.41509136335588614 21:-0.5164930319448079 22:0.16621941217375363 23:-0.4907449753159418 24:0.06457552296413094 25:-0.5715414954121623 26:-0.19540724620941044 27:-0.519137847429344 28:-0.14811172225064725 29:-0.4903430670805466 30:-0.2554730802283112 31:-0.39429996360288266 32:-0.445355274279859 33:-0.5163115249997908 34:-0.4410768962901682 35:-0.5261647591578664 36:-0.5446136436406844 37:-0.5452618827300315 38:-0.5777164146989089 
0.0 0.0 6.0 0.0 0.0 1:0.2223778446386672 2:0.21383615422211 3:-0.4241644363249634 4:3.2390191690834236 5:-0.3725185423623634 6:1.5171417503364517 7:-0.4200895370831735 8:-0.47401558037981034 9:0.21327558384163356 10:0.12080199558712186 11:-0.40440551026280136 12:4.211450726060537 13:1.0780655547036497 14:-0.4044055143661886 15:0.11420429493461774 16:-0.011768673093030261 17:-0.6809624285005554 18:0.2223824977930882 19:-0.6023815465333493 20:0.22959354954676192 21:-0.5557177212427488 22:-0.17917139056693773 23:-0.5896004195468697 24:-0.38355386062378755 25:-0.5966034601922645 26:-0.48192000249441425 27:-0.6008792440846672 28:0.2132762337195387 29:-0.44091870181807696 30:0.09376229584054169 31:-0.47269817669404307 32:-0.42695884521801614 33:-0.43010212418756627 34:-0.5300399055429681 35:-0.39120404693938365 36:-0.6013183786465895 37:-0.5442539979420367 38:-0.6695356056615401 
0.0 0.0 0.0 6.0 0.0 1:0.36278394449746926 2:0.5969644174492935 3:-0.38850900510220404 4:5.44561929447807 5:-0.001170535130092868 6:0.007666327707489242 7:-0.38319672966819085 8:-0.2263213295449418 9:0.024687830556501988 10:-0.05218727177758917 11:-0.3951164741314686 12:1.8901145341535366 13:-0.0841345464716843 14:-0.3666009703117786 15:-0.32882591609491746 16:-0.29477015085185304 17:-0.5690549090052593 18:0.36278345103299003 19:-0.18937607824453645 20:0.5018714559286337 21:-0.1442511927979552 22:0.0802780532940405 23:-0.20465727760130442 24:-0.1443025294139354 25:-0.3657173541364666 26:-0.33690040036625696 27:-0.46532750134334916 28:0.0246890542901652 29:-0.5090662981584655 30:-0.03565713779454042 31:-0.4329340966598534 32:-0.31011979902992787 33:-0.5504607228438201 34:-0.3832060279803824 35:-0.5715600720116755 36:-0.46181949925137 37:-0.5297036177824992 38:-0.5725109198818732 
-0.0 0.5518937548446681 0.0 0.0 0.0 1:0.559432035770977 2:0.526218926993174 3:-0.6072131294986935 4:2.681902933347169 5:-0.5896622310077275 6:0.12553972290754548 7:2.454720362977824 8:-0.5465342241979135 9:0.10366416329720442 10:0.09095180261625703 11:-0.5928274363838402 12:2.765298288430058 13:2.7652981809988018 14:-0.515030042488423 15:-0.5181494305203247 16:-0.5465342241979135 17:-0.7587595737829131 18:0.5594298433566154 19:-0.5525134917110447 20:-0.39287707022917895 21:0.7696172415789201 22:-0.34402968367404574 23:-0.26220168189750725 24:-0.34604504199783853 25:-0.6211136167546225 26:-0.5926981778467811 27:-0.73865020496433 28:0.10366379590551203 29:-0.6581138140472388 30:-0.5262692951962398 31:0.20974847231399876 32:-0.56942691322398 33:-0.5251669721351598 34:-0.3657866459099086 35:-0.583924131663639 36:-0.5747492407310131 37:-0.6613873795013553 38:-0.7258221169324184 
-0.0 0.49175431988776563 0.0 0.0 0.0 1:0.754960337176743 2:0.6993625017046222 3:-0.5861152225102116 4:3.3912243052621114 5:-0.5619309582156088 6:3.287817777876211 7:0.02182927159808716 8:-0.468937237256014 9:0.09940972797388963 10:-0.025978115873025526 11:-0.5921324114989205 12:2.002706226505357 13:1.16678637414855 14:-0.5486686760897653 15:-0.05848344523437604 16:-0.5215314350968355 17:-0.7660877978968659 18:0.7549626178735532 19:-0.5775968499951513 20:0.009564774699780065 21:0.7799251390237529 22:-0.3558991575466284 23:0.06601149753244184 24:-0.5747436147622866 25:-0.7674356071015965 26:-0.6295730660113431 27:-0.69596009223592 28:0.0994088131613634 29:-0.5283160866183014 30:-0.31629572657248983 31:0.027052345481853292 32:-0.6413015721298464 33:-0.6218285703792822 34:-0.5867219433205337 35:-0.6109941656240729 36:-0.6799846046417706 37:-0.7077806382006447 38:-0.7367247152068199 
-0.0 0.3239856487746804 0.0 0.0 0.0 1:0.7401192830378857 2:0.7260659093517752 3:-0.5753902665600563 4:3.5067164139712874 5:0.9023765369868525 6:3.2733470612952007 7:-0.5375451012164829 8:-0.3461231720131623 9:0.05815501935123005 10:-0.07974263436123927 11:-0.5591441498070846 12:1.6018408116878864 13:-0.5094299803331294 14:-0.4356310031140834 15:1.0504503131855987 16:-0.5097442734014234 17:-0.7643513006866055 18:0.7401164148281565 19:-0.5224385438507959 20:-0.10311856626802973 21:0.9041602040616705 22:-0.5182116653982659 23:-0.06878540516005968 24:-0.4209661908065093 25:-0.6833598970661507 26:-0.5747972962950396 27:-0.6147072099419929 28:0.05815729933366628 29:-0.6992447789925944 30:-0.5989859491169375 31:0.05697104634860143 32:-0.6886912179530517 33:-0.6587894616743469 34:-0.43142430620357575 35:-0.6628527190254887 36:-0.6722882025388784 37:-0.6505129609624574 38:-0.7322000606923724 
-5.435440292834567 0.5791637942701039 3.3771648866211317 2.0320898910720944 6.0 1:0.5900344629306443 2:0.5211972039170231 3:-0.5808917172606188 4:3.348728341248473 5:-0.19905202399193053 6:3.280898785632351 7:-0.5071989241704368 8:-0.34022891633628505 9:0.14203555075916405 10:0.0716914977253001 11:-0.5535070933289966 12:2.366274036712992 13:-0.18613100140339334 14:-0.49901920847707043 15:1.2635876663042427 16:-0.4990725564797622 17:-0.7428555498819426 18:0.590032243678983 19:-0.5877734925298822 20:0.007612181637905981 21:0.5785359352235988 22:-0.7081769717586378 23:-0.198355071748136 24:-0.6083966918085103 25:-0.5040893681142936 26:-0.5571166699821911 27:-0.7012143255323489 28:0.14203361210932364 29:-0.5079942742678208 30:-0.3014445942012527 31:0.1435293897206747 32:-0.6469030375732916 33:-0.5166909635656762 34:-0.43689850833360283 35:-0.620336438759295 36:-0.6824045911453588 37:-0.6469559854533393 38:-0.7134829314966015 
-6.0 0.0 0.4769189062448123 0.0 2.7833553850697843 1:0.5200755418842412 2:0.6251254683606755 3:-0.6208650629319513 4:3.4982095826745114 5:3.1716313561891267 6:-0.5610143004486443 7:-0.10444621794146043 8:-0.3725413988038189 9:0.25241911762840374 10:0.04668472047734169 11:-0.6076743890119755 12:2.1361878146488955 13:-0.4600376636163226 14:1.3957397083598038 15:-0.3894855261983513 16:-0.47944620923514053 17:-0.7793385333878148 18:0.5200736789938046 19:-0.3920515267075351 20:-0.014209837339332903 21:0.6586089502114937 22:-0.46704525122510715 23:-0.39920078590512975 24:-0.3882697690385271 25:-0.42737020345378296 26:-0.4969518719432694 27:-0.7514120469724226 28:0.2524174414270351 29:-0.708489765584247 30:-0.39623417741566064 31:0.1765217075714487 32:-0.5765157771067806 33:-0.4156374005089455 34:-0.5466492456925302 35:-0.7407482921318984 36:-0.6589393859493294 37:-0.7499153796263842 38:-0.749205070250428 
-0.040640714720273266 0.5074757613565418 1.8059225004891697 0.0 5.477757636390139 1:0.5383882576435086 2:0.6739213259992757 3:-0.6437306508722156 4:3.282717035252584 5:0.1383904237040945 6:-0.5917689787664057 7:3.2150751287750006 8:-0.5430657179184017 9:0.27654579714084 10:0.0481177323670846 11:-0.594526707741128 12:2.1177244764289083 13:-0.35077127499044863 14:1.523959598846956 15:-0.552621429792659 16:-0.4900708951025513 17:-0.791889211571723 18:0.5383863825789528 19:-0.35851124746220275 20:0.13563897788419393 21:0.721841210461723 22:-0.5635217195253199 23:-0.29734197322700745 24:-0.3292051104450375 25:-0.5411446555913272 26:-0.6654705099173122 27:-0.707601394055913 28:0.27654558739868823 29:-0.7148351873702767 30:-0.33843945832069944 31:0.14672814455841068 32:-0.5638794345793269 33:-0.3631482944585897 34:-0.6609129551551489 35:-0.7555087138814418 36:-0.6957702998622745 37:-0.7618945900307519 38:-0.7583496684020673 
